<?xml version="1.0"?>
<MethodSetup Method="BDT::BDT">
  <GeneralInfo>
    <Info name="TMVA Release" value="4.2.1 [262657]"/>
    <Info name="ROOT Release" value="6.32/00 [401408]"/>
    <Info name="Creator" value="apranikstar"/>
    <Info name="Date" value="Mon Dec  9 18:16:24 2024"/>
    <Info name="Host" value="Darwin ChristoersMBP72.localdomain 23.5.0 Darwin Kernel Version 23.5.0: Wed May 1 20:12:58 PDT 2024; root:xnu-10063.121.3~5/RELEASE_ARM64_T6000 arm64"/>
    <Info name="Dir" value="/Users/apranikstar/Desktop/FCC_Presentation/TMVAClassification/Electron/Hqqlnu"/>
    <Info name="Training events" value="323925"/>
    <Info name="TrainingTime" value="2.08684771e+01"/>
    <Info name="AnalysisType" value="Classification"/>
  </GeneralInfo>
  <Options>
    <Option name="V" modified="Yes">False</Option>
    <Option name="VerbosityLevel" modified="No">Default</Option>
    <Option name="VarTransform" modified="No">None</Option>
    <Option name="H" modified="No">False</Option>
    <Option name="CreateMVAPdfs" modified="No">False</Option>
    <Option name="IgnoreNegWeightsInTraining" modified="No">False</Option>
    <Option name="NTrees" modified="Yes">100</Option>
    <Option name="MaxDepth" modified="Yes">2</Option>
    <Option name="MinNodeSize" modified="Yes">0.5</Option>
    <Option name="nCuts" modified="Yes">30</Option>
    <Option name="BoostType" modified="Yes">AdaBoost</Option>
    <Option name="AdaBoostR2Loss" modified="No">quadratic</Option>
    <Option name="UseBaggedBoost" modified="Yes">True</Option>
    <Option name="Shrinkage" modified="No">1.000000e+00</Option>
    <Option name="AdaBoostBeta" modified="Yes">6.000000e-01</Option>
    <Option name="UseRandomisedTrees" modified="No">False</Option>
    <Option name="UseNvars" modified="No">7</Option>
    <Option name="UsePoissonNvars" modified="No">True</Option>
    <Option name="BaggedSampleFraction" modified="Yes">6.000000e-01</Option>
    <Option name="UseYesNoLeaf" modified="No">True</Option>
    <Option name="NegWeightTreatment" modified="No">inverseboostnegweights</Option>
    <Option name="Css" modified="No">1.000000e+00</Option>
    <Option name="Cts_sb" modified="No">1.000000e+00</Option>
    <Option name="Ctb_ss" modified="No">1.000000e+00</Option>
    <Option name="Cbb" modified="No">1.000000e+00</Option>
    <Option name="NodePurityLimit" modified="No">5.000000e-01</Option>
    <Option name="SeparationType" modified="Yes">giniindex</Option>
    <Option name="RegressionLossFunctionBDTG" modified="No">huber</Option>
    <Option name="HuberQuantile" modified="No">7.000000e-01</Option>
    <Option name="DoBoostMonitor" modified="No">False</Option>
    <Option name="UseFisherCuts" modified="No">False</Option>
    <Option name="MinLinCorrForFisher" modified="No">8.000000e-01</Option>
    <Option name="UseExclusiveVars" modified="No">False</Option>
    <Option name="DoPreselection" modified="No">False</Option>
    <Option name="SigToBkgFraction" modified="No">1.000000e+00</Option>
    <Option name="PruneMethod" modified="No">nopruning</Option>
    <Option name="PruneStrength" modified="No">0.000000e+00</Option>
    <Option name="PruningValFraction" modified="No">5.000000e-01</Option>
    <Option name="SkipNormalization" modified="No">False</Option>
    <Option name="nEventsMin" modified="No">0</Option>
    <Option name="UseBaggedGrad" modified="No">False</Option>
    <Option name="GradBaggingFraction" modified="No">6.000000e-01</Option>
    <Option name="UseNTrainEvents" modified="No">0</Option>
    <Option name="NNodesMax" modified="No">0</Option>
  </Options>
  <Variables NVar="52">
    <Variable VarIndex="0" Expression="Delta_rapidity_JNLO_JLO" Label="Delta_rapidity_JNLO_JLO" Title="Delta_rapidity_JNLO_JLO" Unit="F" Internal="Delta_rapidity_JNLO_JLO" Type="F" Min="-5.25497627e+00" Max="5.12944603e+00"/>
    <Variable VarIndex="1" Expression="Delta_rapidity_electron_JNLO" Label="Delta_rapidity_electron_JNLO" Title="Delta_rapidity_electron_JNLO" Unit="F" Internal="Delta_rapidity_electron_JNLO" Type="F" Min="-5.17370892e+00" Max="5.12944603e+00"/>
    <Variable VarIndex="2" Expression="Delta_rapidity_electron_JLO" Label="Delta_rapidity_electron_JLO" Title="Delta_rapidity_electron_JLO" Unit="F" Internal="Delta_rapidity_electron_JLO" Type="F" Min="-5.02751732e+00" Max="5.25497627e+00"/>
    <Variable VarIndex="3" Expression="JetNLO_Rapidity" Label="JetNLO_Rapidity" Title="JetNLO_Rapidity" Unit="F" Internal="JetNLO_Rapidity" Type="F" Min="-2.99909186e+00" Max="2.99530435e+00"/>
    <Variable VarIndex="4" Expression="JetLO_Rapidity" Label="JetLO_Rapidity" Title="JetLO_Rapidity" Unit="F" Internal="JetLO_Rapidity" Type="F" Min="-2.84084368e+00" Max="2.92613220e+00"/>
    <Variable VarIndex="5" Expression="electron_Rapidity" Label="electron_Rapidity" Title="electron_Rapidity" Unit="F" Internal="electron_Rapidity" Type="F" Min="-2.56099105e+00" Max="2.56050849e+00"/>
    <Variable VarIndex="6" Expression="Delta_eta_JLO_JNLO" Label="Delta_eta_JLO_JNLO" Title="Delta_eta_JLO_JNLO" Unit="F" Internal="Delta_eta_JLO_JNLO" Type="F" Min="-6.78954601e+00" Max="6.24250889e+00"/>
    <Variable VarIndex="7" Expression="Delta_eta_electron_NJO" Label="Delta_eta_electron_NJO" Title="Delta_eta_electron_NJO" Unit="F" Internal="Delta_eta_electron_NJO" Type="F" Min="-5.60817862e+00" Max="5.36720848e+00"/>
    <Variable VarIndex="8" Expression="Delta_eta_electron_JLO" Label="Delta_eta_electron_JLO" Title="Delta_eta_electron_JLO" Unit="F" Internal="Delta_eta_electron_JLO" Type="F" Min="-5.08970928e+00" Max="5.25497437e+00"/>
    <Variable VarIndex="9" Expression="JetNLO_eta" Label="JetNLO_eta" Title="JetNLO_eta" Unit="F" Internal="JetNLO_eta" Type="F" Min="-4.37251997e+00" Max="4.47162628e+00"/>
    <Variable VarIndex="10" Expression="JetLO_eta" Label="JetLO_eta" Title="JetLO_eta" Unit="F" Internal="JetLO_eta" Type="F" Min="-3.94285011e+00" Max="3.77181125e+00"/>
    <Variable VarIndex="11" Expression="electron_eta" Label="electron_eta" Title="electron_eta" Unit="F" Internal="electron_eta" Type="F" Min="-2.56099153e+00" Max="2.56050944e+00"/>
    <Variable VarIndex="12" Expression="PT_electron" Label="PT_electron" Title="PT_electron" Unit="F" Internal="PT_electron" Type="F" Min="1.57431579e+00" Max="5.24370270e+01"/>
    <Variable VarIndex="13" Expression="PT_JNLO" Label="PT_JNLO" Title="PT_JNLO" Unit="F" Internal="PT_JNLO" Type="F" Min="1.00052488e+00" Max="5.02852097e+01"/>
    <Variable VarIndex="14" Expression="PT_JLO" Label="PT_JLO" Title="PT_JLO" Unit="F" Internal="PT_JLO" Type="F" Min="1.30636430e+00" Max="5.24370270e+01"/>
    <Variable VarIndex="15" Expression="Energy_Transverse_electron" Label="Energy_Transverse_electron" Title="Energy_Transverse_electron" Unit="F" Internal="Energy_Transverse_electron" Type="F" Min="1.57431579e+00" Max="5.24370232e+01"/>
    <Variable VarIndex="16" Expression="Energy_Transverse_JNLO" Label="Energy_Transverse_JNLO" Title="Energy_Transverse_JNLO" Unit="F" Internal="Energy_Transverse_JNLO" Type="F" Min="1.00052488e+00" Max="5.23968658e+01"/>
    <Variable VarIndex="17" Expression="Energy_Transverse_JLO" Label="Energy_Transverse_JLO" Title="Energy_Transverse_JLO" Unit="F" Internal="Energy_Transverse_JLO" Type="F" Min="1.36527431e+00" Max="5.24435081e+01"/>
    <Variable VarIndex="18" Expression="Energy_Transverse_met" Label="Energy_Transverse_met" Title="Energy_Transverse_met" Unit="F" Internal="Energy_Transverse_met" Type="F" Min="5.71668893e-02" Max="5.56596832e+01"/>
    <Variable VarIndex="19" Expression="Energy_electron" Label="Energy_electron" Title="Energy_electron" Unit="F" Internal="Energy_electron" Type="F" Min="1.00000286e+01" Max="5.24494972e+01"/>
    <Variable VarIndex="20" Expression="Energy_JNLO" Label="Energy_JNLO" Title="Energy_JNLO" Unit="F" Internal="Energy_JNLO" Type="F" Min="1.00633597e+00" Max="5.24499664e+01"/>
    <Variable VarIndex="21" Expression="Energy_JLO" Label="Energy_JLO" Title="Energy_JLO" Unit="F" Internal="Energy_JLO" Type="F" Min="2.01426101e+00" Max="5.24499626e+01"/>
    <Variable VarIndex="22" Expression="M_JLO" Label="M_JLO" Title="M_JLO" Unit="F" Internal="M_JLO" Type="F" Min="-2.85523925e-02" Max="4.12708969e+01"/>
    <Variable VarIndex="23" Expression="M_JNLO" Label="M_JNLO" Title="M_JNLO" Unit="F" Internal="M_JNLO" Type="F" Min="-2.79120021e-02" Max="4.02533836e+01"/>
    <Variable VarIndex="24" Expression="M_electron" Label="M_electron" Title="M_electron" Unit="F" Internal="M_electron" Type="F" Min="-2.85523925e-02" Max="2.81114206e-02"/>
    <Variable VarIndex="25" Expression="M_met" Label="M_met" Title="M_met" Unit="F" Internal="M_met" Type="F" Min="-2.05634497e-02" Max="2.11179815e-02"/>
    <Variable VarIndex="26" Expression="MT_electron" Label="MT_electron" Title="MT_electron" Unit="F" Internal="MT_electron" Type="F" Min="1.57431340e+00" Max="5.24370232e+01"/>
    <Variable VarIndex="27" Expression="MT_JNLO" Label="MT_JNLO" Title="MT_JNLO" Unit="F" Internal="MT_JNLO" Type="F" Min="1.00052488e+00" Max="5.24143410e+01"/>
    <Variable VarIndex="28" Expression="MT_JLO" Label="MT_JLO" Title="MT_JLO" Unit="F" Internal="MT_JLO" Type="F" Min="2.01419806e+00" Max="5.24439583e+01"/>
    <Variable VarIndex="29" Expression="MT_met" Label="MT_met" Title="MT_met" Unit="F" Internal="MT_met" Type="F" Min="5.69661334e-02" Max="5.56596832e+01"/>
    <Variable VarIndex="30" Expression="Phi_electron" Label="Phi_electron" Title="Phi_electron" Unit="F" Internal="Phi_electron" Type="F" Min="-3.14158440e+00" Max="3.14156508e+00"/>
    <Variable VarIndex="31" Expression="Phi_JNLO" Label="Phi_JNLO" Title="Phi_JNLO" Unit="F" Internal="Phi_JNLO" Type="F" Min="-3.14156723e+00" Max="3.14157867e+00"/>
    <Variable VarIndex="32" Expression="Phi_JLO" Label="Phi_JLO" Title="Phi_JLO" Unit="F" Internal="Phi_JLO" Type="F" Min="-3.14155984e+00" Max="3.14158416e+00"/>
    <Variable VarIndex="33" Expression="Theta_electron" Label="Theta_electron" Title="Theta_electron" Unit="F" Internal="Theta_electron" Type="F" Min="1.54224321e-01" Max="2.98744226e+00"/>
    <Variable VarIndex="34" Expression="Theta_JNLO" Label="Theta_JNLO" Title="Theta_JNLO" Unit="F" Internal="Theta_JNLO" Type="F" Min="2.28564329e-02" Max="3.11635518e+00"/>
    <Variable VarIndex="35" Expression="Theta_JLO" Label="Theta_JLO" Title="Theta_JLO" Unit="F" Internal="Theta_JLO" Type="F" Min="4.60125767e-02" Max="3.10281181e+00"/>
    <Variable VarIndex="36" Expression="cosTheta_electron" Label="cosTheta_electron" Title="cosTheta_electron" Unit="F" Internal="cosTheta_electron" Type="F" Min="-9.88142371e-01" Max="9.88130987e-01"/>
    <Variable VarIndex="37" Expression="cosTheta_JNLO" Label="cosTheta_JNLO" Title="cosTheta_JNLO" Unit="F" Internal="cosTheta_JNLO" Type="F" Min="-9.99681532e-01" Max="9.99738812e-01"/>
    <Variable VarIndex="38" Expression="cosTheta_JLO" Label="cosTheta_JLO" Title="cosTheta_JLO" Unit="F" Internal="cosTheta_JLO" Type="F" Min="-9.99248087e-01" Max="9.98941600e-01"/>
    <Variable VarIndex="39" Expression="CosAngle_JNLO_JLO" Label="CosAngle_JNLO_JLO" Title="CosAngle_JNLO_JLO" Unit="F" Internal="CosAngle_JNLO_JLO" Type="F" Min="-9.99982774e-01" Max="7.07348511e-02"/>
    <Variable VarIndex="40" Expression="CosAngle_Electron_JNLO" Label="CosAngle_Electron_JNLO" Title="CosAngle_Electron_JNLO" Unit="F" Internal="CosAngle_Electron_JNLO" Type="F" Min="-9.99991477e-01" Max="1.00000000e+00"/>
    <Variable VarIndex="41" Expression="CosAngle_Electron_JLO" Label="CosAngle_Electron_JLO" Title="CosAngle_Electron_JLO" Unit="F" Internal="CosAngle_Electron_JLO" Type="F" Min="-9.99997020e-01" Max="1.00000000e+00"/>
    <Variable VarIndex="42" Expression="Linear_Aplanarity" Label="Linear_Aplanarity" Title="Linear_Aplanarity" Unit="F" Internal="Linear_Aplanarity" Type="F" Min="2.88229529e-07" Max="4.98360097e-01"/>
    <Variable VarIndex="43" Expression="Aplanarity" Label="Aplanarity" Title="Aplanarity" Unit="F" Internal="Aplanarity" Type="F" Min="-4.99600361e-16" Max="1.42128155e-01"/>
    <Variable VarIndex="44" Expression="Sphericity" Label="Sphericity" Title="Sphericity" Unit="F" Internal="Sphericity" Type="F" Min="4.32344365e-07" Max="7.58121908e-01"/>
    <Variable VarIndex="45" Expression="DeltaPhi_JNLO_JLO" Label="DeltaPhi_JNLO_JLO" Title="DeltaPhi_JNLO_JLO" Unit="F" Internal="DeltaPhi_JNLO_JLO" Type="F" Min="-3.14158273e+00" Max="3.14159226e+00"/>
    <Variable VarIndex="46" Expression="DeltaPhi_electron_JNLO" Label="DeltaPhi_electron_JNLO" Title="DeltaPhi_electron_JNLO" Unit="F" Internal="DeltaPhi_electron_JNLO" Type="F" Min="-3.14155221e+00" Max="3.14157104e+00"/>
    <Variable VarIndex="47" Expression="DeltaPhi_electron_JLO" Label="DeltaPhi_electron_JLO" Title="DeltaPhi_electron_JLO" Unit="F" Internal="DeltaPhi_electron_JLO" Type="F" Min="-3.14153814e+00" Max="3.14157295e+00"/>
    <Variable VarIndex="48" Expression="DeltaR_JNLO_JLO" Label="DeltaR_JNLO_JLO" Title="DeltaR_JNLO_JLO" Unit="F" Internal="DeltaR_JNLO_JLO" Type="F" Min="1.50067317e+00" Max="6.90080404e+00"/>
    <Variable VarIndex="49" Expression="DeltaR_electron_JLO" Label="DeltaR_electron_JLO" Title="DeltaR_electron_JLO" Unit="F" Internal="DeltaR_electron_JLO" Type="F" Min="0.00000000e+00" Max="5.68727970e+00"/>
    <Variable VarIndex="50" Expression="DeltaR_electron_JNLO" Label="DeltaR_electron_JNLO" Title="DeltaR_electron_JNLO" Unit="F" Internal="DeltaR_electron_JNLO" Type="F" Min="0.00000000e+00" Max="6.02506113e+00"/>
    <Variable VarIndex="51" Expression="Energy_MET" Label="Energy_MET" Title="Energy_MET" Unit="F" Internal="Energy_MET" Type="F" Min="2.00000591e+01" Max="5.58781128e+01"/>
  </Variables>
  <Spectators NSpec="0"/>
  <Classes NClass="2">
    <Class Name="Signal" Index="0"/>
    <Class Name="Background" Index="1"/>
  </Classes>
  <Transformations NTransformations="0"/>
  <MVAPdfs/>
  <Weights NTrees="100" AnalysisType="0">
    <BinaryTree type="DecisionTree" boostWeight="1.5992883683870673e+00" itree="0">
      <Node pos="s" depth="0" NCoef="0" IVar="18" Cut="1.2514235496520996e+01" cType="0" res="-9.9000000000000000e+01" rms="0.0000000000000000e+00" purity="4.9312984943389893e-01" nType="0">
        <Node pos="l" depth="1" NCoef="0" IVar="20" Cut="3.7513793945312500e+01" cType="0" res="-9.9000000000000000e+01" rms="0.0000000000000000e+00" purity="8.9760172367095947e-01" nType="0">
          <Node pos="l" depth="2" NCoef="0" IVar="-1" Cut="0.0000000000000000e+00" cType="1" res="-9.9000000000000000e+01" rms="0.0000000000000000e+00" purity="9.8954790830612183e-01" nType="1"/>
          <Node pos="r" depth="2" NCoef="0" IVar="-1" Cut="0.0000000000000000e+00" cType="1" res="-9.9000000000000000e+01" rms="0.0000000000000000e+00" purity="3.0004107952117920e-01" nType="-1"/>
        </Node>
        <Node pos="r" depth="1" NCoef="0" IVar="43" Cut="4.5617208816111088e-03" cType="0" res="-9.9000000000000000e+01" rms="0.0000000000000000e+00" purity="1.2665174901485443e-01" nType="0">
          <Node pos="l" depth="2" NCoef="0" IVar="-1" Cut="0.0000000000000000e+00" cType="1" res="-9.9000000000000000e+01" rms="0.0000000000000000e+00" purity="7.4546343088150024e-01" nType="1"/>
          <Node pos="r" depth="2" NCoef="0" IVar="-1" Cut="0.0000000000000000e+00" cType="1" res="-9.9000000000000000e+01" rms="0.0000000000000000e+00" purity="6.0922425240278244e-02" nType="-1"/>
        </Node>
      </Node>
    </BinaryTree>
    <BinaryTree type="DecisionTree" boostWeight="1.2284432296562449e+00" itree="1">
      <Node pos="s" depth="0" NCoef="0" IVar="18" Cut="1.0660862922668457e+01" cType="0" res="-9.9000000000000000e+01" rms="0.0000000000000000e+00" purity="5.2311438322067261e-01" nType="0">
        <Node pos="l" depth="1" NCoef="0" IVar="50" Cut="1.9315326213836670e-01" cType="0" res="-9.9000000000000000e+01" rms="0.0000000000000000e+00" purity="8.7434554100036621e-01" nType="0">
          <Node pos="l" depth="2" NCoef="0" IVar="-1" Cut="0.0000000000000000e+00" cType="1" res="-9.9000000000000000e+01" rms="0.0000000000000000e+00" purity="9.5432013273239136e-01" nType="1"/>
          <Node pos="r" depth="2" NCoef="0" IVar="-1" Cut="0.0000000000000000e+00" cType="1" res="-9.9000000000000000e+01" rms="0.0000000000000000e+00" purity="2.0736145973205566e-01" nType="-1"/>
        </Node>
        <Node pos="r" depth="1" NCoef="0" IVar="-1" Cut="5.5258119106292725e-01" cType="0" res="-9.9000000000000000e+01" rms="0.0000000000000000e+00" purity="1.6643513739109039e-01" nType="-1"/>
      </Node>
    </BinaryTree>
    <BinaryTree type="DecisionTree" boostWeight="1.3265829715497470e+00" itree="2">
      <Node pos="s" depth="0" NCoef="0" IVar="50" Cut="3.8871362805366516e-01" cType="0" res="-9.9000000000000000e+01" rms="0.0000000000000000e+00" purity="5.9142017364501953e-01" nType="0">
        <Node pos="l" depth="1" NCoef="0" IVar="49" Cut="1.7702545225620270e-01" cType="0" res="-9.9000000000000000e+01" rms="0.0000000000000000e+00" purity="8.2593983411788940e-01" nType="0">
          <Node pos="l" depth="2" NCoef="0" IVar="-1" Cut="0.0000000000000000e+00" cType="1" res="-9.9000000000000000e+01" rms="0.0000000000000000e+00" purity="9.1782647371292114e-01" nType="1"/>
          <Node pos="r" depth="2" NCoef="0" IVar="-1" Cut="0.0000000000000000e+00" cType="1" res="-9.9000000000000000e+01" rms="0.0000000000000000e+00" purity="2.7347484230995178e-01" nType="-1"/>
        </Node>
        <Node pos="r" depth="1" NCoef="0" IVar="48" Cut="2.9988896846771240e+00" cType="1" res="-9.9000000000000000e+01" rms="0.0000000000000000e+00" purity="1.6364622116088867e-01" nType="0">
          <Node pos="l" depth="2" NCoef="0" IVar="-1" Cut="0.0000000000000000e+00" cType="1" res="-9.9000000000000000e+01" rms="0.0000000000000000e+00" purity="9.5660334825515747e-01" nType="1"/>
          <Node pos="r" depth="2" NCoef="0" IVar="-1" Cut="0.0000000000000000e+00" cType="1" res="-9.9000000000000000e+01" rms="0.0000000000000000e+00" purity="8.2933790981769562e-02" nType="-1"/>
        </Node>
      </Node>
    </BinaryTree>
    <BinaryTree type="DecisionTree" boostWeight="7.3306753270389680e-01" itree="3">
      <Node pos="s" depth="0" NCoef="0" IVar="18" Cut="5.4380555152893066e+00" cType="0" res="-9.9000000000000000e+01" rms="0.0000000000000000e+00" purity="5.5828732252120972e-01" nType="0">
        <Node pos="l" depth="1" NCoef="0" IVar="20" Cut="4.4150844573974609e+01" cType="0" res="-9.9000000000000000e+01" rms="0.0000000000000000e+00" purity="7.2284984588623047e-01" nType="0">
          <Node pos="l" depth="2" NCoef="0" IVar="-1" Cut="0.0000000000000000e+00" cType="1" res="-9.9000000000000000e+01" rms="0.0000000000000000e+00" purity="9.0881609916687012e-01" nType="1"/>
          <Node pos="r" depth="2" NCoef="0" IVar="-1" Cut="0.0000000000000000e+00" cType="1" res="-9.9000000000000000e+01" rms="0.0000000000000000e+00" purity="4.7987741231918335e-01" nType="-1"/>
        </Node>
        <Node pos="r" depth="1" NCoef="0" IVar="-1" Cut="8.7102687358856201e-01" cType="1" res="-9.9000000000000000e+01" rms="0.0000000000000000e+00" purity="1.4755973219871521e-01" nType="-1"/>
      </Node>
    </BinaryTree>
    <BinaryTree type="DecisionTree" boostWeight="8.5081434767096820e-01" itree="4">
      <Node pos="s" depth="0" NCoef="0" IVar="50" Cut="3.8605365157127380e-01" cType="0" res="-9.9000000000000000e+01" rms="0.0000000000000000e+00" purity="6.1772751808166504e-01" nType="0">
        <Node pos="l" depth="1" NCoef="0" IVar="-1" Cut="5.3698892593383789e+00" cType="0" res="-9.9000000000000000e+01" rms="0.0000000000000000e+00" purity="7.8715413808822632e-01" nType="1"/>
        <Node pos="r" depth="1" NCoef="0" IVar="18" Cut="1.5850729942321777e+01" cType="0" res="-9.9000000000000000e+01" rms="0.0000000000000000e+00" purity="3.0660530924797058e-01" nType="0">
          <Node pos="l" depth="2" NCoef="0" IVar="-1" Cut="0.0000000000000000e+00" cType="1" res="-9.9000000000000000e+01" rms="0.0000000000000000e+00" purity="8.4490442276000977e-01" nType="1"/>
          <Node pos="r" depth="2" NCoef="0" IVar="-1" Cut="0.0000000000000000e+00" cType="1" res="-9.9000000000000000e+01" rms="0.0000000000000000e+00" purity="1.6401679813861847e-01" nType="-1"/>
        </Node>
      </Node>
    </BinaryTree>
    <BinaryTree type="DecisionTree" boostWeight="6.6799507306741923e-01" itree="5">
      <Node pos="s" depth="0" NCoef="0" IVar="18" Cut="3.6444261074066162e+00" cType="0" res="-9.9000000000000000e+01" rms="0.0000000000000000e+00" purity="5.6029713153839111e-01" nType="0">
        <Node pos="l" depth="1" NCoef="0" IVar="49" Cut="2.9952359199523926e+00" cType="1" res="-9.9000000000000000e+01" rms="0.0000000000000000e+00" purity="6.6106474399566650e-01" nType="0">
          <Node pos="l" depth="2" NCoef="0" IVar="-1" Cut="0.0000000000000000e+00" cType="1" res="-9.9000000000000000e+01" rms="0.0000000000000000e+00" purity="7.8654646873474121e-01" nType="1"/>
          <Node pos="r" depth="2" NCoef="0" IVar="-1" Cut="0.0000000000000000e+00" cType="1" res="-9.9000000000000000e+01" rms="0.0000000000000000e+00" purity="3.9111179113388062e-01" nType="-1"/>
        </Node>
        <Node pos="r" depth="1" NCoef="0" IVar="-1" Cut="0.0000000000000000e+00" cType="1" res="-9.9000000000000000e+01" rms="0.0000000000000000e+00" purity="1.5685872733592987e-01" nType="-1"/>
      </Node>
    </BinaryTree>
    <BinaryTree type="DecisionTree" boostWeight="6.2967143691718908e-01" itree="6">
      <Node pos="s" depth="0" NCoef="0" IVar="18" Cut="7.1526751518249512e+00" cType="0" res="-9.9000000000000000e+01" rms="0.0000000000000000e+00" purity="5.8565783500671387e-01" nType="0">
        <Node pos="l" depth="1" NCoef="0" IVar="21" Cut="4.6338527679443359e+01" cType="0" res="-9.9000000000000000e+01" rms="0.0000000000000000e+00" purity="7.2470724582672119e-01" nType="0">
          <Node pos="l" depth="2" NCoef="0" IVar="-1" Cut="0.0000000000000000e+00" cType="1" res="-9.9000000000000000e+01" rms="0.0000000000000000e+00" purity="8.2731157541275024e-01" nType="1"/>
          <Node pos="r" depth="2" NCoef="0" IVar="-1" Cut="0.0000000000000000e+00" cType="1" res="-9.9000000000000000e+01" rms="0.0000000000000000e+00" purity="4.9712419509887695e-01" nType="-1"/>
        </Node>
        <Node pos="r" depth="1" NCoef="0" IVar="48" Cut="3.1359860897064209e+00" cType="1" res="-9.9000000000000000e+01" rms="0.0000000000000000e+00" purity="3.4031471610069275e-01" nType="0">
          <Node pos="l" depth="2" NCoef="0" IVar="-1" Cut="0.0000000000000000e+00" cType="1" res="-9.9000000000000000e+01" rms="0.0000000000000000e+00" purity="6.8095332384109497e-01" nType="1"/>
          <Node pos="r" depth="2" NCoef="0" IVar="-1" Cut="0.0000000000000000e+00" cType="1" res="-9.9000000000000000e+01" rms="0.0000000000000000e+00" purity="1.9922594726085663e-01" nType="-1"/>
        </Node>
      </Node>
    </BinaryTree>
    <BinaryTree type="DecisionTree" boostWeight="6.4528541003816386e-01" itree="7">
      <Node pos="s" depth="0" NCoef="0" IVar="48" Cut="3.1213533878326416e+00" cType="1" res="-9.9000000000000000e+01" rms="0.0000000000000000e+00" purity="5.3878390789031982e-01" nType="0">
        <Node pos="l" depth="1" NCoef="0" IVar="48" Cut="3.0690858364105225e+00" cType="1" res="-9.9000000000000000e+01" rms="0.0000000000000000e+00" purity="7.4214428663253784e-01" nType="0">
          <Node pos="l" depth="2" NCoef="0" IVar="-1" Cut="0.0000000000000000e+00" cType="1" res="-9.9000000000000000e+01" rms="0.0000000000000000e+00" purity="8.1119424104690552e-01" nType="1"/>
          <Node pos="r" depth="2" NCoef="0" IVar="-1" Cut="0.0000000000000000e+00" cType="1" res="-9.9000000000000000e+01" rms="0.0000000000000000e+00" purity="4.4285127520561218e-01" nType="-1"/>
        </Node>
        <Node pos="r" depth="1" NCoef="0" IVar="18" Cut="1.6601390838623047e+01" cType="0" res="-9.9000000000000000e+01" rms="0.0000000000000000e+00" purity="3.8184714317321777e-01" nType="0">
          <Node pos="l" depth="2" NCoef="0" IVar="-1" Cut="0.0000000000000000e+00" cType="1" res="-9.9000000000000000e+01" rms="0.0000000000000000e+00" purity="7.1301460266113281e-01" nType="1"/>
          <Node pos="r" depth="2" NCoef="0" IVar="-1" Cut="0.0000000000000000e+00" cType="1" res="-9.9000000000000000e+01" rms="0.0000000000000000e+00" purity="2.6136997342109680e-01" nType="-1"/>
        </Node>
      </Node>
    </BinaryTree>
    <BinaryTree type="DecisionTree" boostWeight="5.5601524000687186e-01" itree="8">
      <Node pos="s" depth="0" NCoef="0" IVar="18" Cut="7.1262974739074707e+00" cType="0" res="-9.9000000000000000e+01" rms="0.0000000000000000e+00" purity="5.8911055326461792e-01" nType="0">
        <Node pos="l" depth="1" NCoef="0" IVar="19" Cut="3.1909303665161133e+01" cType="1" res="-9.9000000000000000e+01" rms="0.0000000000000000e+00" purity="6.7978125810623169e-01" nType="0">
          <Node pos="l" depth="2" NCoef="0" IVar="-1" Cut="0.0000000000000000e+00" cType="1" res="-9.9000000000000000e+01" rms="0.0000000000000000e+00" purity="7.0725530385971069e-01" nType="1"/>
          <Node pos="r" depth="2" NCoef="0" IVar="-1" Cut="0.0000000000000000e+00" cType="1" res="-9.9000000000000000e+01" rms="0.0000000000000000e+00" purity="0.0000000000000000e+00" nType="-1"/>
        </Node>
        <Node pos="r" depth="1" NCoef="0" IVar="21" Cut="4.7557498931884766e+01" cType="0" res="-9.9000000000000000e+01" rms="0.0000000000000000e+00" purity="3.7327364087104797e-01" nType="0">
          <Node pos="l" depth="2" NCoef="0" IVar="-1" Cut="0.0000000000000000e+00" cType="1" res="-9.9000000000000000e+01" rms="0.0000000000000000e+00" purity="5.9042173624038696e-01" nType="1"/>
          <Node pos="r" depth="2" NCoef="0" IVar="-1" Cut="0.0000000000000000e+00" cType="1" res="-9.9000000000000000e+01" rms="0.0000000000000000e+00" purity="1.8330824375152588e-01" nType="-1"/>
        </Node>
      </Node>
    </BinaryTree>
    <BinaryTree type="DecisionTree" boostWeight="5.3329358356051737e-01" itree="9">
      <Node pos="s" depth="0" NCoef="0" IVar="22" Cut="1.5241102218627930e+01" cType="0" res="-9.9000000000000000e+01" rms="0.0000000000000000e+00" purity="4.9242132902145386e-01" nType="0">
        <Node pos="l" depth="1" NCoef="0" IVar="50" Cut="1.8156512081623077e-01" cType="0" res="-9.9000000000000000e+01" rms="0.0000000000000000e+00" purity="6.8645298480987549e-01" nType="0">
          <Node pos="l" depth="2" NCoef="0" IVar="-1" Cut="0.0000000000000000e+00" cType="1" res="-9.9000000000000000e+01" rms="0.0000000000000000e+00" purity="7.5069671869277954e-01" nType="1"/>
          <Node pos="r" depth="2" NCoef="0" IVar="-1" Cut="0.0000000000000000e+00" cType="1" res="-9.9000000000000000e+01" rms="0.0000000000000000e+00" purity="3.2214918732643127e-01" nType="-1"/>
        </Node>
        <Node pos="r" depth="1" NCoef="0" IVar="27" Cut="4.5731605529785156e+01" cType="0" res="-9.9000000000000000e+01" rms="0.0000000000000000e+00" purity="3.7710720300674438e-01" nType="0">
          <Node pos="l" depth="2" NCoef="0" IVar="-1" Cut="0.0000000000000000e+00" cType="1" res="-9.9000000000000000e+01" rms="0.0000000000000000e+00" purity="7.9400438070297241e-01" nType="1"/>
          <Node pos="r" depth="2" NCoef="0" IVar="-1" Cut="0.0000000000000000e+00" cType="1" res="-9.9000000000000000e+01" rms="0.0000000000000000e+00" purity="3.2326602935791016e-01" nType="-1"/>
        </Node>
      </Node>
    </BinaryTree>
    <BinaryTree type="DecisionTree" boostWeight="3.7711825191740594e-01" itree="10">
      <Node pos="s" depth="0" NCoef="0" IVar="51" Cut="3.6177532196044922e+01" cType="1" res="-9.9000000000000000e+01" rms="0.0000000000000000e+00" purity="5.6176805496215820e-01" nType="0">
        <Node pos="l" depth="1" NCoef="0" IVar="18" Cut="3.5521123409271240e+00" cType="0" res="-9.9000000000000000e+01" rms="0.0000000000000000e+00" purity="5.8345699310302734e-01" nType="0">
          <Node pos="l" depth="2" NCoef="0" IVar="-1" Cut="0.0000000000000000e+00" cType="1" res="-9.9000000000000000e+01" rms="0.0000000000000000e+00" purity="6.2652987241744995e-01" nType="1"/>
          <Node pos="r" depth="2" NCoef="0" IVar="-1" Cut="0.0000000000000000e+00" cType="1" res="-9.9000000000000000e+01" rms="0.0000000000000000e+00" purity="2.5814440846443176e-01" nType="-1"/>
        </Node>
        <Node pos="r" depth="1" NCoef="0" IVar="-1" Cut="7.3616886138916016e-01" cType="0" res="-9.9000000000000000e+01" rms="0.0000000000000000e+00" purity="7.5768649578094482e-02" nType="-1"/>
      </Node>
    </BinaryTree>
    <BinaryTree type="DecisionTree" boostWeight="4.5285017948537604e-01" itree="11">
      <Node pos="s" depth="0" NCoef="0" IVar="45" Cut="2.9389092922210693e+00" cType="1" res="-9.9000000000000000e+01" rms="0.0000000000000000e+00" purity="4.9025470018386841e-01" nType="0">
        <Node pos="l" depth="1" NCoef="0" IVar="45" Cut="-2.9454374313354492e+00" cType="0" res="-9.9000000000000000e+01" rms="0.0000000000000000e+00" purity="5.5508106946945190e-01" nType="0">
          <Node pos="l" depth="2" NCoef="0" IVar="-1" Cut="0.0000000000000000e+00" cType="1" res="-9.9000000000000000e+01" rms="0.0000000000000000e+00" purity="6.7001259326934814e-01" nType="1"/>
          <Node pos="r" depth="2" NCoef="0" IVar="-1" Cut="0.0000000000000000e+00" cType="1" res="-9.9000000000000000e+01" rms="0.0000000000000000e+00" purity="3.8604718446731567e-01" nType="-1"/>
        </Node>
        <Node pos="r" depth="1" NCoef="0" IVar="23" Cut="1.9624694824218750e+01" cType="0" res="-9.9000000000000000e+01" rms="0.0000000000000000e+00" purity="3.0684909224510193e-01" nType="0">
          <Node pos="l" depth="2" NCoef="0" IVar="-1" Cut="0.0000000000000000e+00" cType="1" res="-9.9000000000000000e+01" rms="0.0000000000000000e+00" purity="6.3845491409301758e-01" nType="1"/>
          <Node pos="r" depth="2" NCoef="0" IVar="-1" Cut="0.0000000000000000e+00" cType="1" res="-9.9000000000000000e+01" rms="0.0000000000000000e+00" purity="1.7185680568218231e-01" nType="-1"/>
        </Node>
      </Node>
    </BinaryTree>
    <BinaryTree type="DecisionTree" boostWeight="3.9642082057451045e-01" itree="12">
      <Node pos="s" depth="0" NCoef="0" IVar="21" Cut="4.9271850585937500e+01" cType="0" res="-9.9000000000000000e+01" rms="0.0000000000000000e+00" purity="4.5901089906692505e-01" nType="0">
        <Node pos="l" depth="1" NCoef="0" IVar="51" Cut="3.2615501403808594e+01" cType="1" res="-9.9000000000000000e+01" rms="0.0000000000000000e+00" purity="5.9479254484176636e-01" nType="0">
          <Node pos="l" depth="2" NCoef="0" IVar="-1" Cut="0.0000000000000000e+00" cType="1" res="-9.9000000000000000e+01" rms="0.0000000000000000e+00" purity="6.3300287723541260e-01" nType="1"/>
          <Node pos="r" depth="2" NCoef="0" IVar="-1" Cut="0.0000000000000000e+00" cType="1" res="-9.9000000000000000e+01" rms="0.0000000000000000e+00" purity="1.0082335025072098e-01" nType="-1"/>
        </Node>
        <Node pos="r" depth="1" NCoef="0" IVar="38" Cut="-7.4005925655364990e-01" cType="1" res="-9.9000000000000000e+01" rms="0.0000000000000000e+00" purity="3.7449452280998230e-01" nType="0">
          <Node pos="l" depth="2" NCoef="0" IVar="-1" Cut="0.0000000000000000e+00" cType="1" res="-9.9000000000000000e+01" rms="0.0000000000000000e+00" purity="7.3282694816589355e-01" nType="1"/>
          <Node pos="r" depth="2" NCoef="0" IVar="-1" Cut="0.0000000000000000e+00" cType="1" res="-9.9000000000000000e+01" rms="0.0000000000000000e+00" purity="3.4223532676696777e-01" nType="-1"/>
        </Node>
      </Node>
    </BinaryTree>
    <BinaryTree type="DecisionTree" boostWeight="4.4629745868766568e-01" itree="13">
      <Node pos="s" depth="0" NCoef="0" IVar="20" Cut="4.2493923187255859e+01" cType="0" res="-9.9000000000000000e+01" rms="0.0000000000000000e+00" purity="4.4109264016151428e-01" nType="0">
        <Node pos="l" depth="1" NCoef="0" IVar="12" Cut="6.4011616706848145e+00" cType="0" res="-9.9000000000000000e+01" rms="0.0000000000000000e+00" purity="5.4556250572204590e-01" nType="0">
          <Node pos="l" depth="2" NCoef="0" IVar="-1" Cut="0.0000000000000000e+00" cType="1" res="-9.9000000000000000e+01" rms="0.0000000000000000e+00" purity="5.9501665830612183e-01" nType="1"/>
          <Node pos="r" depth="2" NCoef="0" IVar="-1" Cut="0.0000000000000000e+00" cType="1" res="-9.9000000000000000e+01" rms="0.0000000000000000e+00" purity="3.3111640810966492e-01" nType="-1"/>
        </Node>
        <Node pos="r" depth="1" NCoef="0" IVar="8" Cut="7.0600593090057373e-01" cType="0" res="-9.9000000000000000e+01" rms="0.0000000000000000e+00" purity="2.6283535361289978e-01" nType="0">
          <Node pos="l" depth="2" NCoef="0" IVar="-1" Cut="0.0000000000000000e+00" cType="1" res="-9.9000000000000000e+01" rms="0.0000000000000000e+00" purity="6.9498360157012939e-01" nType="1"/>
          <Node pos="r" depth="2" NCoef="0" IVar="-1" Cut="0.0000000000000000e+00" cType="1" res="-9.9000000000000000e+01" rms="0.0000000000000000e+00" purity="1.8678453564643860e-01" nType="-1"/>
        </Node>
      </Node>
    </BinaryTree>
    <BinaryTree type="DecisionTree" boostWeight="3.7508249916846709e-01" itree="14">
      <Node pos="s" depth="0" NCoef="0" IVar="41" Cut="-2.9032066464424133e-01" cType="0" res="-9.9000000000000000e+01" rms="0.0000000000000000e+00" purity="4.7898802161216736e-01" nType="0">
        <Node pos="l" depth="1" NCoef="0" IVar="18" Cut="1.2558576583862305e+01" cType="1" res="-9.9000000000000000e+01" rms="0.0000000000000000e+00" purity="5.7889747619628906e-01" nType="0">
          <Node pos="l" depth="2" NCoef="0" IVar="-1" Cut="0.0000000000000000e+00" cType="1" res="-9.9000000000000000e+01" rms="0.0000000000000000e+00" purity="6.9711375236511230e-01" nType="1"/>
          <Node pos="r" depth="2" NCoef="0" IVar="-1" Cut="0.0000000000000000e+00" cType="1" res="-9.9000000000000000e+01" rms="0.0000000000000000e+00" purity="4.5279487967491150e-01" nType="-1"/>
        </Node>
        <Node pos="r" depth="1" NCoef="0" IVar="39" Cut="-8.6336356401443481e-01" cType="1" res="-9.9000000000000000e+01" rms="0.0000000000000000e+00" purity="3.7671524286270142e-01" nType="0">
          <Node pos="l" depth="2" NCoef="0" IVar="-1" Cut="0.0000000000000000e+00" cType="1" res="-9.9000000000000000e+01" rms="0.0000000000000000e+00" purity="5.8957183361053467e-01" nType="1"/>
          <Node pos="r" depth="2" NCoef="0" IVar="-1" Cut="0.0000000000000000e+00" cType="1" res="-9.9000000000000000e+01" rms="0.0000000000000000e+00" purity="2.8106388449668884e-01" nType="-1"/>
        </Node>
      </Node>
    </BinaryTree>
    <BinaryTree type="DecisionTree" boostWeight="2.2080431606702478e-01" itree="15">
      <Node pos="s" depth="0" NCoef="0" IVar="47" Cut="2.9388918876647949e+00" cType="1" res="-9.9000000000000000e+01" rms="0.0000000000000000e+00" purity="4.8743057250976562e-01" nType="0">
        <Node pos="l" depth="1" NCoef="0" IVar="51" Cut="3.6203052520751953e+01" cType="1" res="-9.9000000000000000e+01" rms="0.0000000000000000e+00" purity="5.2703881263732910e-01" nType="0">
          <Node pos="l" depth="2" NCoef="0" IVar="-1" Cut="0.0000000000000000e+00" cType="1" res="-9.9000000000000000e+01" rms="0.0000000000000000e+00" purity="5.4648429155349731e-01" nType="1"/>
          <Node pos="r" depth="2" NCoef="0" IVar="-1" Cut="0.0000000000000000e+00" cType="1" res="-9.9000000000000000e+01" rms="0.0000000000000000e+00" purity="7.1195729076862335e-02" nType="-1"/>
        </Node>
        <Node pos="r" depth="1" NCoef="0" IVar="-1" Cut="-8.2745182514190674e-01" cType="1" res="-9.9000000000000000e+01" rms="0.0000000000000000e+00" purity="1.9872851669788361e-01" nType="-1"/>
      </Node>
    </BinaryTree>
    <BinaryTree type="DecisionTree" boostWeight="2.8899807189538679e-01" itree="16">
      <Node pos="s" depth="0" NCoef="0" IVar="37" Cut="-2.2571457922458649e-01" cType="1" res="-9.9000000000000000e+01" rms="0.0000000000000000e+00" purity="4.9344962835311890e-01" nType="0">
        <Node pos="l" depth="1" NCoef="0" IVar="-1" Cut="3.5865783691406250e+01" cType="1" res="-9.9000000000000000e+01" rms="0.0000000000000000e+00" purity="6.1701369285583496e-01" nType="1"/>
        <Node pos="r" depth="1" NCoef="0" IVar="-1" Cut="2.9388928413391113e+00" cType="1" res="-9.9000000000000000e+01" rms="0.0000000000000000e+00" purity="3.8083234429359436e-01" nType="-1"/>
      </Node>
    </BinaryTree>
    <BinaryTree type="DecisionTree" boostWeight="9.7207521486081069e-02" itree="17">
      <Node pos="s" depth="0" NCoef="0" IVar="19" Cut="3.4648162841796875e+01" cType="1" res="-9.9000000000000000e+01" rms="0.0000000000000000e+00" purity="5.2030807733535767e-01" nType="0">
        <Node pos="l" depth="1" NCoef="0" IVar="24" Cut="-5.7328594848513603e-03" cType="1" res="-9.9000000000000000e+01" rms="0.0000000000000000e+00" purity="5.3026986122131348e-01" nType="0">
          <Node pos="l" depth="2" NCoef="0" IVar="-1" Cut="0.0000000000000000e+00" cType="1" res="-9.9000000000000000e+01" rms="0.0000000000000000e+00" purity="7.7088612318038940e-01" nType="1"/>
          <Node pos="r" depth="2" NCoef="0" IVar="-1" Cut="0.0000000000000000e+00" cType="1" res="-9.9000000000000000e+01" rms="0.0000000000000000e+00" purity="4.9924039840698242e-01" nType="-1"/>
        </Node>
        <Node pos="r" depth="1" NCoef="0" IVar="-1" Cut="0.0000000000000000e+00" cType="1" res="-9.9000000000000000e+01" rms="0.0000000000000000e+00" purity="0.0000000000000000e+00" nType="-1"/>
      </Node>
    </BinaryTree>
    <BinaryTree type="DecisionTree" boostWeight="3.9186919869741965e-01" itree="18">
      <Node pos="s" depth="0" NCoef="0" IVar="40" Cut="8.7096917629241943e-01" cType="1" res="-9.9000000000000000e+01" rms="0.0000000000000000e+00" purity="4.8170581459999084e-01" nType="0">
        <Node pos="l" depth="1" NCoef="0" IVar="20" Cut="3.0876831054687500e+01" cType="0" res="-9.9000000000000000e+01" rms="0.0000000000000000e+00" purity="5.7168740034103394e-01" nType="0">
          <Node pos="l" depth="2" NCoef="0" IVar="-1" Cut="0.0000000000000000e+00" cType="1" res="-9.9000000000000000e+01" rms="0.0000000000000000e+00" purity="6.1373859643936157e-01" nType="1"/>
          <Node pos="r" depth="2" NCoef="0" IVar="-1" Cut="0.0000000000000000e+00" cType="1" res="-9.9000000000000000e+01" rms="0.0000000000000000e+00" purity="2.5321170687675476e-01" nType="-1"/>
        </Node>
        <Node pos="r" depth="1" NCoef="0" IVar="38" Cut="-7.3787802457809448e-01" cType="1" res="-9.9000000000000000e+01" rms="0.0000000000000000e+00" purity="3.4259364008903503e-01" nType="0">
          <Node pos="l" depth="2" NCoef="0" IVar="-1" Cut="0.0000000000000000e+00" cType="1" res="-9.9000000000000000e+01" rms="0.0000000000000000e+00" purity="7.5808966159820557e-01" nType="1"/>
          <Node pos="r" depth="2" NCoef="0" IVar="-1" Cut="0.0000000000000000e+00" cType="1" res="-9.9000000000000000e+01" rms="0.0000000000000000e+00" purity="3.0358958244323730e-01" nType="-1"/>
        </Node>
      </Node>
    </BinaryTree>
    <BinaryTree type="DecisionTree" boostWeight="3.3980023702612266e-01" itree="19">
      <Node pos="s" depth="0" NCoef="0" IVar="14" Cut="3.0995136260986328e+01" cType="1" res="-9.9000000000000000e+01" rms="0.0000000000000000e+00" purity="4.5476984977722168e-01" nType="0">
        <Node pos="l" depth="1" NCoef="0" IVar="18" Cut="3.4040555953979492e+00" cType="0" res="-9.9000000000000000e+01" rms="0.0000000000000000e+00" purity="5.9506660699844360e-01" nType="0">
          <Node pos="l" depth="2" NCoef="0" IVar="-1" Cut="0.0000000000000000e+00" cType="1" res="-9.9000000000000000e+01" rms="0.0000000000000000e+00" purity="6.5147602558135986e-01" nType="1"/>
          <Node pos="r" depth="2" NCoef="0" IVar="-1" Cut="0.0000000000000000e+00" cType="1" res="-9.9000000000000000e+01" rms="0.0000000000000000e+00" purity="7.4100717902183533e-02" nType="-1"/>
        </Node>
        <Node pos="r" depth="1" NCoef="0" IVar="20" Cut="4.5813655853271484e+01" cType="0" res="-9.9000000000000000e+01" rms="0.0000000000000000e+00" purity="4.1083151102066040e-01" nType="0">
          <Node pos="l" depth="2" NCoef="0" IVar="-1" Cut="0.0000000000000000e+00" cType="1" res="-9.9000000000000000e+01" rms="0.0000000000000000e+00" purity="5.3429299592971802e-01" nType="1"/>
          <Node pos="r" depth="2" NCoef="0" IVar="-1" Cut="0.0000000000000000e+00" cType="1" res="-9.9000000000000000e+01" rms="0.0000000000000000e+00" purity="2.7359473705291748e-01" nType="-1"/>
        </Node>
      </Node>
    </BinaryTree>
    <BinaryTree type="DecisionTree" boostWeight="3.1574928859360474e-01" itree="20">
      <Node pos="s" depth="0" NCoef="0" IVar="21" Cut="4.2688198089599609e+01" cType="0" res="-9.9000000000000000e+01" rms="0.0000000000000000e+00" purity="4.7105771303176880e-01" nType="0">
        <Node pos="l" depth="1" NCoef="0" IVar="24" Cut="2.2850551176816225e-03" cType="1" res="-9.9000000000000000e+01" rms="0.0000000000000000e+00" purity="5.2041018009185791e-01" nType="0">
          <Node pos="l" depth="2" NCoef="0" IVar="-1" Cut="0.0000000000000000e+00" cType="1" res="-9.9000000000000000e+01" rms="0.0000000000000000e+00" purity="5.8054983615875244e-01" nType="1"/>
          <Node pos="r" depth="2" NCoef="0" IVar="-1" Cut="0.0000000000000000e+00" cType="1" res="-9.9000000000000000e+01" rms="0.0000000000000000e+00" purity="4.1552761197090149e-01" nType="-1"/>
        </Node>
        <Node pos="r" depth="1" NCoef="0" IVar="28" Cut="2.6940080642700195e+01" cType="1" res="-9.9000000000000000e+01" rms="0.0000000000000000e+00" purity="3.1482785940170288e-01" nType="0">
          <Node pos="l" depth="2" NCoef="0" IVar="-1" Cut="0.0000000000000000e+00" cType="1" res="-9.9000000000000000e+01" rms="0.0000000000000000e+00" purity="6.7741119861602783e-01" nType="1"/>
          <Node pos="r" depth="2" NCoef="0" IVar="-1" Cut="0.0000000000000000e+00" cType="1" res="-9.9000000000000000e+01" rms="0.0000000000000000e+00" purity="1.8968409299850464e-01" nType="-1"/>
        </Node>
      </Node>
    </BinaryTree>
    <BinaryTree type="DecisionTree" boostWeight="2.9009020846067396e-01" itree="21">
      <Node pos="s" depth="0" NCoef="0" IVar="45" Cut="2.9389092922210693e+00" cType="1" res="-9.9000000000000000e+01" rms="0.0000000000000000e+00" purity="4.6360138058662415e-01" nType="0">
        <Node pos="l" depth="1" NCoef="0" IVar="5" Cut="-1.5702357292175293e+00" cType="0" res="-9.9000000000000000e+01" rms="0.0000000000000000e+00" purity="5.1440042257308960e-01" nType="0">
          <Node pos="l" depth="2" NCoef="0" IVar="-1" Cut="0.0000000000000000e+00" cType="1" res="-9.9000000000000000e+01" rms="0.0000000000000000e+00" purity="5.4506558179855347e-01" nType="1"/>
          <Node pos="r" depth="2" NCoef="0" IVar="-1" Cut="0.0000000000000000e+00" cType="1" res="-9.9000000000000000e+01" rms="0.0000000000000000e+00" purity="1.8928325176239014e-01" nType="-1"/>
        </Node>
        <Node pos="r" depth="1" NCoef="0" IVar="45" Cut="3.0631427764892578e+00" cType="1" res="-9.9000000000000000e+01" rms="0.0000000000000000e+00" purity="2.9255747795104980e-01" nType="0">
          <Node pos="l" depth="2" NCoef="0" IVar="-1" Cut="0.0000000000000000e+00" cType="1" res="-9.9000000000000000e+01" rms="0.0000000000000000e+00" purity="6.6707432270050049e-01" nType="1"/>
          <Node pos="r" depth="2" NCoef="0" IVar="-1" Cut="0.0000000000000000e+00" cType="1" res="-9.9000000000000000e+01" rms="0.0000000000000000e+00" purity="1.7169009149074554e-01" nType="-1"/>
        </Node>
      </Node>
    </BinaryTree>
    <BinaryTree type="DecisionTree" boostWeight="2.7508065057520054e-01" itree="22">
      <Node pos="s" depth="0" NCoef="0" IVar="16" Cut="3.5767215728759766e+01" cType="0" res="-9.9000000000000000e+01" rms="0.0000000000000000e+00" purity="4.2557677626609802e-01" nType="0">
        <Node pos="l" depth="1" NCoef="0" IVar="20" Cut="4.9772266387939453e+01" cType="0" res="-9.9000000000000000e+01" rms="0.0000000000000000e+00" purity="5.1283711194992065e-01" nType="0">
          <Node pos="l" depth="2" NCoef="0" IVar="-1" Cut="0.0000000000000000e+00" cType="1" res="-9.9000000000000000e+01" rms="0.0000000000000000e+00" purity="6.3196319341659546e-01" nType="1"/>
          <Node pos="r" depth="2" NCoef="0" IVar="-1" Cut="0.0000000000000000e+00" cType="1" res="-9.9000000000000000e+01" rms="0.0000000000000000e+00" purity="4.5057025551795959e-01" nType="-1"/>
        </Node>
        <Node pos="r" depth="1" NCoef="0" IVar="-1" Cut="-2.9389002323150635e+00" cType="0" res="-9.9000000000000000e+01" rms="0.0000000000000000e+00" purity="3.6188220977783203e-01" nType="-1"/>
      </Node>
    </BinaryTree>
    <BinaryTree type="DecisionTree" boostWeight="2.9258236487349826e-01" itree="23">
      <Node pos="s" depth="0" NCoef="0" IVar="22" Cut="1.4985918998718262e+01" cType="0" res="-9.9000000000000000e+01" rms="0.0000000000000000e+00" purity="4.7112333774566650e-01" nType="0">
        <Node pos="l" depth="1" NCoef="0" IVar="41" Cut="9.3548136949539185e-01" cType="1" res="-9.9000000000000000e+01" rms="0.0000000000000000e+00" purity="5.8402645587921143e-01" nType="0">
          <Node pos="l" depth="2" NCoef="0" IVar="-1" Cut="0.0000000000000000e+00" cType="1" res="-9.9000000000000000e+01" rms="0.0000000000000000e+00" purity="6.3417428731918335e-01" nType="1"/>
          <Node pos="r" depth="2" NCoef="0" IVar="-1" Cut="0.0000000000000000e+00" cType="1" res="-9.9000000000000000e+01" rms="0.0000000000000000e+00" purity="3.6796584725379944e-01" nType="-1"/>
        </Node>
        <Node pos="r" depth="1" NCoef="0" IVar="-1" Cut="-2.9389009475708008e+00" cType="0" res="-9.9000000000000000e+01" rms="0.0000000000000000e+00" purity="3.9059391617774963e-01" nType="-1"/>
      </Node>
    </BinaryTree>
    <BinaryTree type="DecisionTree" boostWeight="1.1170185877263662e-01" itree="24">
      <Node pos="s" depth="0" NCoef="0" IVar="42" Cut="2.8937050700187683e-01" cType="0" res="-9.9000000000000000e+01" rms="0.0000000000000000e+00" purity="4.8645183444023132e-01" nType="0">
        <Node pos="l" depth="1" NCoef="0" IVar="18" Cut="1.4134159088134766e+01" cType="1" res="-9.9000000000000000e+01" rms="0.0000000000000000e+00" purity="8.8101130723953247e-01" nType="0">
          <Node pos="l" depth="2" NCoef="0" IVar="-1" Cut="0.0000000000000000e+00" cType="1" res="-9.9000000000000000e+01" rms="0.0000000000000000e+00" purity="9.9114352464675903e-01" nType="1"/>
          <Node pos="r" depth="2" NCoef="0" IVar="-1" Cut="0.0000000000000000e+00" cType="1" res="-9.9000000000000000e+01" rms="0.0000000000000000e+00" purity="2.7554488182067871e-01" nType="-1"/>
        </Node>
        <Node pos="r" depth="1" NCoef="0" IVar="-1" Cut="2.6432033538818359e+01" cType="1" res="-9.9000000000000000e+01" rms="0.0000000000000000e+00" purity="4.7020965814590454e-01" nType="-1"/>
      </Node>
    </BinaryTree>
    <BinaryTree type="DecisionTree" boostWeight="2.8258309232603429e-01" itree="25">
      <Node pos="s" depth="0" NCoef="0" IVar="25" Cut="5.0611877813935280e-03" cType="1" res="-9.9000000000000000e+01" rms="0.0000000000000000e+00" purity="5.1879370212554932e-01" nType="0">
        <Node pos="l" depth="1" NCoef="0" IVar="21" Cut="3.4553409576416016e+01" cType="0" res="-9.9000000000000000e+01" rms="0.0000000000000000e+00" purity="5.6795012950897217e-01" nType="0">
          <Node pos="l" depth="2" NCoef="0" IVar="-1" Cut="0.0000000000000000e+00" cType="1" res="-9.9000000000000000e+01" rms="0.0000000000000000e+00" purity="5.8488661050796509e-01" nType="1"/>
          <Node pos="r" depth="2" NCoef="0" IVar="-1" Cut="0.0000000000000000e+00" cType="1" res="-9.9000000000000000e+01" rms="0.0000000000000000e+00" purity="1.4140941202640533e-01" nType="-1"/>
        </Node>
        <Node pos="r" depth="1" NCoef="0" IVar="27" Cut="1.7565389633178711e+01" cType="1" res="-9.9000000000000000e+01" rms="0.0000000000000000e+00" purity="3.7384235858917236e-01" nType="0">
          <Node pos="l" depth="2" NCoef="0" IVar="-1" Cut="0.0000000000000000e+00" cType="1" res="-9.9000000000000000e+01" rms="0.0000000000000000e+00" purity="7.3219066858291626e-01" nType="1"/>
          <Node pos="r" depth="2" NCoef="0" IVar="-1" Cut="0.0000000000000000e+00" cType="1" res="-9.9000000000000000e+01" rms="0.0000000000000000e+00" purity="3.3133816719055176e-01" nType="-1"/>
        </Node>
      </Node>
    </BinaryTree>
    <BinaryTree type="DecisionTree" boostWeight="1.8258371320429262e-01" itree="26">
      <Node pos="s" depth="0" NCoef="0" IVar="18" Cut="3.6428725719451904e+00" cType="0" res="-9.9000000000000000e+01" rms="0.0000000000000000e+00" purity="4.7165116667747498e-01" nType="0">
        <Node pos="l" depth="1" NCoef="0" IVar="19" Cut="2.9170650482177734e+01" cType="1" res="-9.9000000000000000e+01" rms="0.0000000000000000e+00" purity="5.1042449474334717e-01" nType="0">
          <Node pos="l" depth="2" NCoef="0" IVar="-1" Cut="0.0000000000000000e+00" cType="1" res="-9.9000000000000000e+01" rms="0.0000000000000000e+00" purity="5.2821451425552368e-01" nType="1"/>
          <Node pos="r" depth="2" NCoef="0" IVar="-1" Cut="0.0000000000000000e+00" cType="1" res="-9.9000000000000000e+01" rms="0.0000000000000000e+00" purity="4.6121530234813690e-02" nType="-1"/>
        </Node>
        <Node pos="r" depth="1" NCoef="0" IVar="-1" Cut="0.0000000000000000e+00" cType="1" res="-9.9000000000000000e+01" rms="0.0000000000000000e+00" purity="2.1778450906276703e-01" nType="-1"/>
      </Node>
    </BinaryTree>
    <BinaryTree type="DecisionTree" boostWeight="3.0044205753503955e-01" itree="27">
      <Node pos="s" depth="0" NCoef="0" IVar="18" Cut="5.4458642005920410e+00" cType="0" res="-9.9000000000000000e+01" rms="0.0000000000000000e+00" purity="4.5693963766098022e-01" nType="0">
        <Node pos="l" depth="1" NCoef="0" IVar="23" Cut="2.2061830520629883e+01" cType="1" res="-9.9000000000000000e+01" rms="0.0000000000000000e+00" purity="5.0367397069931030e-01" nType="0">
          <Node pos="l" depth="2" NCoef="0" IVar="-1" Cut="0.0000000000000000e+00" cType="1" res="-9.9000000000000000e+01" rms="0.0000000000000000e+00" purity="5.6928080320358276e-01" nType="1"/>
          <Node pos="r" depth="2" NCoef="0" IVar="-1" Cut="0.0000000000000000e+00" cType="1" res="-9.9000000000000000e+01" rms="0.0000000000000000e+00" purity="3.6019608378410339e-01" nType="-1"/>
        </Node>
        <Node pos="r" depth="1" NCoef="0" IVar="22" Cut="7.9486432075500488e+00" cType="1" res="-9.9000000000000000e+01" rms="0.0000000000000000e+00" purity="2.6490953564643860e-01" nType="0">
          <Node pos="l" depth="2" NCoef="0" IVar="-1" Cut="0.0000000000000000e+00" cType="1" res="-9.9000000000000000e+01" rms="0.0000000000000000e+00" purity="5.4602617025375366e-01" nType="1"/>
          <Node pos="r" depth="2" NCoef="0" IVar="-1" Cut="0.0000000000000000e+00" cType="1" res="-9.9000000000000000e+01" rms="0.0000000000000000e+00" purity="2.0650154352188110e-01" nType="-1"/>
        </Node>
      </Node>
    </BinaryTree>
    <BinaryTree type="DecisionTree" boostWeight="1.4201840781188269e-01" itree="28">
      <Node pos="s" depth="0" NCoef="0" IVar="46" Cut="2.9388892650604248e+00" cType="1" res="-9.9000000000000000e+01" rms="0.0000000000000000e+00" purity="4.4267520308494568e-01" nType="0">
        <Node pos="l" depth="1" NCoef="0" IVar="-1" Cut="3.3277385711669922e+01" cType="1" res="-9.9000000000000000e+01" rms="0.0000000000000000e+00" purity="4.6950900554656982e-01" nType="-1"/>
        <Node pos="r" depth="1" NCoef="0" IVar="40" Cut="-6.2055718898773193e-01" cType="0" res="-9.9000000000000000e+01" rms="0.0000000000000000e+00" purity="1.4062269032001495e-01" nType="0">
          <Node pos="l" depth="2" NCoef="0" IVar="-1" Cut="0.0000000000000000e+00" cType="1" res="-9.9000000000000000e+01" rms="0.0000000000000000e+00" purity="6.0735410451889038e-01" nType="1"/>
          <Node pos="r" depth="2" NCoef="0" IVar="-1" Cut="0.0000000000000000e+00" cType="1" res="-9.9000000000000000e+01" rms="0.0000000000000000e+00" purity="9.4520419836044312e-02" nType="-1"/>
        </Node>
      </Node>
    </BinaryTree>
    <BinaryTree type="DecisionTree" boostWeight="2.8143363536450466e-01" itree="29">
      <Node pos="s" depth="0" NCoef="0" IVar="17" Cut="3.2662010192871094e+01" cType="1" res="-9.9000000000000000e+01" rms="0.0000000000000000e+00" purity="4.4264259934425354e-01" nType="0">
        <Node pos="l" depth="1" NCoef="0" IVar="20" Cut="4.4154285430908203e+01" cType="1" res="-9.9000000000000000e+01" rms="0.0000000000000000e+00" purity="5.9369879961013794e-01" nType="0">
          <Node pos="l" depth="2" NCoef="0" IVar="-1" Cut="0.0000000000000000e+00" cType="1" res="-9.9000000000000000e+01" rms="0.0000000000000000e+00" purity="7.1774333715438843e-01" nType="1"/>
          <Node pos="r" depth="2" NCoef="0" IVar="-1" Cut="0.0000000000000000e+00" cType="1" res="-9.9000000000000000e+01" rms="0.0000000000000000e+00" purity="3.8922786712646484e-01" nType="-1"/>
        </Node>
        <Node pos="r" depth="1" NCoef="0" IVar="-1" Cut="3.2372032165527344e+01" cType="0" res="-9.9000000000000000e+01" rms="0.0000000000000000e+00" purity="4.0169733762741089e-01" nType="-1"/>
      </Node>
    </BinaryTree>
    <BinaryTree type="DecisionTree" boostWeight="1.6570234460789021e-01" itree="30">
      <Node pos="s" depth="0" NCoef="0" IVar="17" Cut="4.7563251495361328e+01" cType="0" res="-9.9000000000000000e+01" rms="0.0000000000000000e+00" purity="4.9944439530372620e-01" nType="0">
        <Node pos="l" depth="1" NCoef="0" IVar="-1" Cut="2.5407919883728027e+00" cType="0" res="-9.9000000000000000e+01" rms="0.0000000000000000e+00" purity="6.7948520183563232e-01" nType="1"/>
        <Node pos="r" depth="1" NCoef="0" IVar="-1" Cut="2.9388146400451660e+00" cType="1" res="-9.9000000000000000e+01" rms="0.0000000000000000e+00" purity="4.5732939243316650e-01" nType="-1"/>
      </Node>
    </BinaryTree>
    <BinaryTree type="DecisionTree" boostWeight="1.8758978609237456e-01" itree="31">
      <Node pos="s" depth="0" NCoef="0" IVar="19" Cut="2.7801290512084961e+01" cType="1" res="-9.9000000000000000e+01" rms="0.0000000000000000e+00" purity="5.0277185440063477e-01" nType="0">
        <Node pos="l" depth="1" NCoef="0" IVar="21" Cut="5.0860984802246094e+01" cType="0" res="-9.9000000000000000e+01" rms="0.0000000000000000e+00" purity="5.1945579051971436e-01" nType="0">
          <Node pos="l" depth="2" NCoef="0" IVar="-1" Cut="0.0000000000000000e+00" cType="1" res="-9.9000000000000000e+01" rms="0.0000000000000000e+00" purity="6.7304581403732300e-01" nType="1"/>
          <Node pos="r" depth="2" NCoef="0" IVar="-1" Cut="0.0000000000000000e+00" cType="1" res="-9.9000000000000000e+01" rms="0.0000000000000000e+00" purity="4.7073277831077576e-01" nType="-1"/>
        </Node>
        <Node pos="r" depth="1" NCoef="0" IVar="-1" Cut="1.4406203269958496e+01" cType="1" res="-9.9000000000000000e+01" rms="0.0000000000000000e+00" purity="6.2842667102813721e-02" nType="-1"/>
      </Node>
    </BinaryTree>
    <BinaryTree type="DecisionTree" boostWeight="3.0693417568827080e-01" itree="32">
      <Node pos="s" depth="0" NCoef="0" IVar="18" Cut="7.1697020530700684e+00" cType="0" res="-9.9000000000000000e+01" rms="0.0000000000000000e+00" purity="5.0417852401733398e-01" nType="0">
        <Node pos="l" depth="1" NCoef="0" IVar="19" Cut="3.1909431457519531e+01" cType="1" res="-9.9000000000000000e+01" rms="0.0000000000000000e+00" purity="5.6093877553939819e-01" nType="0">
          <Node pos="l" depth="2" NCoef="0" IVar="-1" Cut="0.0000000000000000e+00" cType="1" res="-9.9000000000000000e+01" rms="0.0000000000000000e+00" purity="5.7888478040695190e-01" nType="1"/>
          <Node pos="r" depth="2" NCoef="0" IVar="-1" Cut="0.0000000000000000e+00" cType="1" res="-9.9000000000000000e+01" rms="0.0000000000000000e+00" purity="0.0000000000000000e+00" nType="-1"/>
        </Node>
        <Node pos="r" depth="1" NCoef="0" IVar="48" Cut="3.0975308418273926e+00" cType="1" res="-9.9000000000000000e+01" rms="0.0000000000000000e+00" purity="3.6776351928710938e-01" nType="0">
          <Node pos="l" depth="2" NCoef="0" IVar="-1" Cut="0.0000000000000000e+00" cType="1" res="-9.9000000000000000e+01" rms="0.0000000000000000e+00" purity="7.9908728599548340e-01" nType="1"/>
          <Node pos="r" depth="2" NCoef="0" IVar="-1" Cut="0.0000000000000000e+00" cType="1" res="-9.9000000000000000e+01" rms="0.0000000000000000e+00" purity="3.0799394845962524e-01" nType="-1"/>
        </Node>
      </Node>
    </BinaryTree>
    <BinaryTree type="DecisionTree" boostWeight="2.0401930357291961e-01" itree="33">
      <Node pos="s" depth="0" NCoef="0" IVar="46" Cut="2.9388921260833740e+00" cType="1" res="-9.9000000000000000e+01" rms="0.0000000000000000e+00" purity="4.8780906200408936e-01" nType="0">
        <Node pos="l" depth="1" NCoef="0" IVar="51" Cut="2.6944459915161133e+01" cType="1" res="-9.9000000000000000e+01" rms="0.0000000000000000e+00" purity="5.0729835033416748e-01" nType="0">
          <Node pos="l" depth="2" NCoef="0" IVar="-1" Cut="0.0000000000000000e+00" cType="1" res="-9.9000000000000000e+01" rms="0.0000000000000000e+00" purity="5.6482243537902832e-01" nType="1"/>
          <Node pos="r" depth="2" NCoef="0" IVar="-1" Cut="0.0000000000000000e+00" cType="1" res="-9.9000000000000000e+01" rms="0.0000000000000000e+00" purity="4.2077928781509399e-01" nType="-1"/>
        </Node>
        <Node pos="r" depth="1" NCoef="0" IVar="-1" Cut="4.3076267242431641e+01" cType="0" res="-9.9000000000000000e+01" rms="0.0000000000000000e+00" purity="2.4846246838569641e-01" nType="-1"/>
      </Node>
    </BinaryTree>
    <BinaryTree type="DecisionTree" boostWeight="1.5814598156393700e-01" itree="34">
      <Node pos="s" depth="0" NCoef="0" IVar="19" Cut="3.1909275054931641e+01" cType="1" res="-9.9000000000000000e+01" rms="0.0000000000000000e+00" purity="5.2241057157516479e-01" nType="0">
        <Node pos="l" depth="1" NCoef="0" IVar="13" Cut="3.1207267761230469e+01" cType="0" res="-9.9000000000000000e+01" rms="0.0000000000000000e+00" purity="5.3259903192520142e-01" nType="0">
          <Node pos="l" depth="2" NCoef="0" IVar="-1" Cut="0.0000000000000000e+00" cType="1" res="-9.9000000000000000e+01" rms="0.0000000000000000e+00" purity="5.9718793630599976e-01" nType="1"/>
          <Node pos="r" depth="2" NCoef="0" IVar="-1" Cut="0.0000000000000000e+00" cType="1" res="-9.9000000000000000e+01" rms="0.0000000000000000e+00" purity="4.7721278667449951e-01" nType="-1"/>
        </Node>
        <Node pos="r" depth="1" NCoef="0" IVar="-1" Cut="2.2393871843814850e-01" cType="0" res="-9.9000000000000000e+01" rms="0.0000000000000000e+00" purity="2.6726996526122093e-02" nType="-1"/>
      </Node>
    </BinaryTree>
    <BinaryTree type="DecisionTree" boostWeight="1.6722146040359934e-01" itree="35">
      <Node pos="s" depth="0" NCoef="0" IVar="18" Cut="3.6444261074066162e+00" cType="0" res="-9.9000000000000000e+01" rms="0.0000000000000000e+00" purity="4.6806815266609192e-01" nType="0">
        <Node pos="l" depth="1" NCoef="0" IVar="21" Cut="4.1674716949462891e+01" cType="0" res="-9.9000000000000000e+01" rms="0.0000000000000000e+00" purity="4.9218949675559998e-01" nType="0">
          <Node pos="l" depth="2" NCoef="0" IVar="-1" Cut="0.0000000000000000e+00" cType="1" res="-9.9000000000000000e+01" rms="0.0000000000000000e+00" purity="5.2490359544754028e-01" nType="1"/>
          <Node pos="r" depth="2" NCoef="0" IVar="-1" Cut="0.0000000000000000e+00" cType="1" res="-9.9000000000000000e+01" rms="0.0000000000000000e+00" purity="3.2233142852783203e-01" nType="-1"/>
        </Node>
        <Node pos="r" depth="1" NCoef="0" IVar="-1" Cut="0.0000000000000000e+00" cType="1" res="-9.9000000000000000e+01" rms="0.0000000000000000e+00" purity="2.6669245958328247e-01" nType="-1"/>
      </Node>
    </BinaryTree>
    <BinaryTree type="DecisionTree" boostWeight="3.2361374423889661e-01" itree="36">
      <Node pos="s" depth="0" NCoef="0" IVar="0" Cut="8.0876815319061279e-01" cType="0" res="-9.9000000000000000e+01" rms="0.0000000000000000e+00" purity="4.9258783459663391e-01" nType="0">
        <Node pos="l" depth="1" NCoef="0" IVar="2" Cut="-1.5169342756271362e+00" cType="0" res="-9.9000000000000000e+01" rms="0.0000000000000000e+00" purity="6.2188011407852173e-01" nType="0">
          <Node pos="l" depth="2" NCoef="0" IVar="-1" Cut="0.0000000000000000e+00" cType="1" res="-9.9000000000000000e+01" rms="0.0000000000000000e+00" purity="7.3417389392852783e-01" nType="1"/>
          <Node pos="r" depth="2" NCoef="0" IVar="-1" Cut="0.0000000000000000e+00" cType="1" res="-9.9000000000000000e+01" rms="0.0000000000000000e+00" purity="3.7571120262145996e-01" nType="-1"/>
        </Node>
        <Node pos="r" depth="1" NCoef="0" IVar="3" Cut="7.4107152223587036e-01" cType="0" res="-9.9000000000000000e+01" rms="0.0000000000000000e+00" purity="4.3750128149986267e-01" nType="0">
          <Node pos="l" depth="2" NCoef="0" IVar="-1" Cut="0.0000000000000000e+00" cType="1" res="-9.9000000000000000e+01" rms="0.0000000000000000e+00" purity="5.8251726627349854e-01" nType="1"/>
          <Node pos="r" depth="2" NCoef="0" IVar="-1" Cut="0.0000000000000000e+00" cType="1" res="-9.9000000000000000e+01" rms="0.0000000000000000e+00" purity="3.9087262749671936e-01" nType="-1"/>
        </Node>
      </Node>
    </BinaryTree>
    <BinaryTree type="DecisionTree" boostWeight="1.9783391487095731e-01" itree="37">
      <Node pos="s" depth="0" NCoef="0" IVar="13" Cut="3.7077701568603516e+01" cType="0" res="-9.9000000000000000e+01" rms="0.0000000000000000e+00" purity="4.8794192075729370e-01" nType="0">
        <Node pos="l" depth="1" NCoef="0" IVar="-1" Cut="1.0654241561889648e+01" cType="1" res="-9.9000000000000000e+01" rms="0.0000000000000000e+00" purity="6.3316804170608521e-01" nType="1"/>
        <Node pos="r" depth="1" NCoef="0" IVar="45" Cut="-2.5335354804992676e+00" cType="0" res="-9.9000000000000000e+01" rms="0.0000000000000000e+00" purity="4.4634073972702026e-01" nType="0">
          <Node pos="l" depth="2" NCoef="0" IVar="-1" Cut="0.0000000000000000e+00" cType="1" res="-9.9000000000000000e+01" rms="0.0000000000000000e+00" purity="5.1053553819656372e-01" nType="1"/>
          <Node pos="r" depth="2" NCoef="0" IVar="-1" Cut="0.0000000000000000e+00" cType="1" res="-9.9000000000000000e+01" rms="0.0000000000000000e+00" purity="3.3676376938819885e-01" nType="-1"/>
        </Node>
      </Node>
    </BinaryTree>
    <BinaryTree type="DecisionTree" boostWeight="1.9756377228845756e-01" itree="38">
      <Node pos="s" depth="0" NCoef="0" IVar="40" Cut="-6.7740398645401001e-01" cType="0" res="-9.9000000000000000e+01" rms="0.0000000000000000e+00" purity="4.9353221058845520e-01" nType="0">
        <Node pos="l" depth="1" NCoef="0" IVar="-1" Cut="5.4019463062286377e-01" cType="1" res="-9.9000000000000000e+01" rms="0.0000000000000000e+00" purity="5.3937643766403198e-01" nType="1"/>
        <Node pos="r" depth="1" NCoef="0" IVar="18" Cut="1.9639152526855469e+01" cType="0" res="-9.9000000000000000e+01" rms="0.0000000000000000e+00" purity="3.4120532870292664e-01" nType="0">
          <Node pos="l" depth="2" NCoef="0" IVar="-1" Cut="0.0000000000000000e+00" cType="1" res="-9.9000000000000000e+01" rms="0.0000000000000000e+00" purity="6.4209336042404175e-01" nType="1"/>
          <Node pos="r" depth="2" NCoef="0" IVar="-1" Cut="0.0000000000000000e+00" cType="1" res="-9.9000000000000000e+01" rms="0.0000000000000000e+00" purity="2.5545862317085266e-01" nType="-1"/>
        </Node>
      </Node>
    </BinaryTree>
    <BinaryTree type="DecisionTree" boostWeight="2.0727531075147773e-01" itree="39">
      <Node pos="s" depth="0" NCoef="0" IVar="47" Cut="-2.9388570785522461e+00" cType="0" res="-9.9000000000000000e+01" rms="0.0000000000000000e+00" purity="4.6844518184661865e-01" nType="0">
        <Node pos="l" depth="1" NCoef="0" IVar="33" Cut="6.1119496822357178e-01" cType="0" res="-9.9000000000000000e+01" rms="0.0000000000000000e+00" purity="4.9926352500915527e-01" nType="0">
          <Node pos="l" depth="2" NCoef="0" IVar="-1" Cut="0.0000000000000000e+00" cType="1" res="-9.9000000000000000e+01" rms="0.0000000000000000e+00" purity="5.3282225131988525e-01" nType="1"/>
          <Node pos="r" depth="2" NCoef="0" IVar="-1" Cut="0.0000000000000000e+00" cType="1" res="-9.9000000000000000e+01" rms="0.0000000000000000e+00" purity="2.7795693278312683e-01" nType="-1"/>
        </Node>
        <Node pos="r" depth="1" NCoef="0" IVar="41" Cut="-7.5083577632904053e-01" cType="0" res="-9.9000000000000000e+01" rms="0.0000000000000000e+00" purity="2.1316611766815186e-01" nType="0">
          <Node pos="l" depth="2" NCoef="0" IVar="-1" Cut="0.0000000000000000e+00" cType="1" res="-9.9000000000000000e+01" rms="0.0000000000000000e+00" purity="5.7535338401794434e-01" nType="1"/>
          <Node pos="r" depth="2" NCoef="0" IVar="-1" Cut="0.0000000000000000e+00" cType="1" res="-9.9000000000000000e+01" rms="0.0000000000000000e+00" purity="1.2767024338245392e-01" nType="-1"/>
        </Node>
      </Node>
    </BinaryTree>
    <BinaryTree type="DecisionTree" boostWeight="2.2215763176968908e-01" itree="40">
      <Node pos="s" depth="0" NCoef="0" IVar="42" Cut="1.4468005299568176e-01" cType="0" res="-9.9000000000000000e+01" rms="0.0000000000000000e+00" purity="4.7021821141242981e-01" nType="0">
        <Node pos="l" depth="1" NCoef="0" IVar="18" Cut="1.7924245834350586e+01" cType="1" res="-9.9000000000000000e+01" rms="0.0000000000000000e+00" purity="6.5035438537597656e-01" nType="0">
          <Node pos="l" depth="2" NCoef="0" IVar="-1" Cut="0.0000000000000000e+00" cType="1" res="-9.9000000000000000e+01" rms="0.0000000000000000e+00" purity="8.3142465353012085e-01" nType="1"/>
          <Node pos="r" depth="2" NCoef="0" IVar="-1" Cut="0.0000000000000000e+00" cType="1" res="-9.9000000000000000e+01" rms="0.0000000000000000e+00" purity="3.2559177279472351e-01" nType="-1"/>
        </Node>
        <Node pos="r" depth="1" NCoef="0" IVar="-1" Cut="1.9435681402683258e-01" cType="0" res="-9.9000000000000000e+01" rms="0.0000000000000000e+00" purity="4.3964990973472595e-01" nType="-1"/>
      </Node>
    </BinaryTree>
    <BinaryTree type="DecisionTree" boostWeight="7.9381710070521541e-02" itree="41">
      <Node pos="s" depth="0" NCoef="0" IVar="-1" Cut="3.2364562988281250e+01" cType="1" res="-9.9000000000000000e+01" rms="0.0000000000000000e+00" purity="4.6697244048118591e-01" nType="-1"/>
    </BinaryTree>
    <BinaryTree type="DecisionTree" boostWeight="2.7291345313580440e-01" itree="42">
      <Node pos="s" depth="0" NCoef="0" IVar="30" Cut="1.0131252557039261e-01" cType="1" res="-9.9000000000000000e+01" rms="0.0000000000000000e+00" purity="5.0116467475891113e-01" nType="0">
        <Node pos="l" depth="1" NCoef="0" IVar="43" Cut="4.2192018590867519e-03" cType="1" res="-9.9000000000000000e+01" rms="0.0000000000000000e+00" purity="5.7386600971221924e-01" nType="0">
          <Node pos="l" depth="2" NCoef="0" IVar="-1" Cut="0.0000000000000000e+00" cType="1" res="-9.9000000000000000e+01" rms="0.0000000000000000e+00" purity="6.4635908603668213e-01" nType="1"/>
          <Node pos="r" depth="2" NCoef="0" IVar="-1" Cut="0.0000000000000000e+00" cType="1" res="-9.9000000000000000e+01" rms="0.0000000000000000e+00" purity="4.0090394020080566e-01" nType="-1"/>
        </Node>
        <Node pos="r" depth="1" NCoef="0" IVar="-1" Cut="2.9388918876647949e+00" cType="1" res="-9.9000000000000000e+01" rms="0.0000000000000000e+00" purity="4.1315364837646484e-01" nType="-1"/>
      </Node>
    </BinaryTree>
    <BinaryTree type="DecisionTree" boostWeight="1.3827716143517732e-01" itree="43">
      <Node pos="s" depth="0" NCoef="0" IVar="27" Cut="4.2420963287353516e+01" cType="0" res="-9.9000000000000000e+01" rms="0.0000000000000000e+00" purity="5.2787649631500244e-01" nType="0">
        <Node pos="l" depth="1" NCoef="0" IVar="23" Cut="2.8231157302856445e+01" cType="1" res="-9.9000000000000000e+01" rms="0.0000000000000000e+00" purity="6.6359424591064453e-01" nType="0">
          <Node pos="l" depth="2" NCoef="0" IVar="-1" Cut="0.0000000000000000e+00" cType="1" res="-9.9000000000000000e+01" rms="0.0000000000000000e+00" purity="7.3761427402496338e-01" nType="1"/>
          <Node pos="r" depth="2" NCoef="0" IVar="-1" Cut="0.0000000000000000e+00" cType="1" res="-9.9000000000000000e+01" rms="0.0000000000000000e+00" purity="4.5509991049766541e-01" nType="-1"/>
        </Node>
        <Node pos="r" depth="1" NCoef="0" IVar="-1" Cut="3.1909273147583008e+01" cType="1" res="-9.9000000000000000e+01" rms="0.0000000000000000e+00" purity="4.8430106043815613e-01" nType="-1"/>
      </Node>
    </BinaryTree>
    <BinaryTree type="DecisionTree" boostWeight="2.3307891415932075e-01" itree="44">
      <Node pos="s" depth="0" NCoef="0" IVar="20" Cut="3.0876649856567383e+01" cType="0" res="-9.9000000000000000e+01" rms="0.0000000000000000e+00" purity="5.2020329236984253e-01" nType="0">
        <Node pos="l" depth="1" NCoef="0" IVar="51" Cut="3.5845405578613281e+01" cType="1" res="-9.9000000000000000e+01" rms="0.0000000000000000e+00" purity="5.5090004205703735e-01" nType="0">
          <Node pos="l" depth="2" NCoef="0" IVar="-1" Cut="0.0000000000000000e+00" cType="1" res="-9.9000000000000000e+01" rms="0.0000000000000000e+00" purity="5.6480818986892700e-01" nType="1"/>
          <Node pos="r" depth="2" NCoef="0" IVar="-1" Cut="0.0000000000000000e+00" cType="1" res="-9.9000000000000000e+01" rms="0.0000000000000000e+00" purity="2.7382841333746910e-02" nType="-1"/>
        </Node>
        <Node pos="r" depth="1" NCoef="0" IVar="49" Cut="3.6018538475036621e-01" cType="0" res="-9.9000000000000000e+01" rms="0.0000000000000000e+00" purity="3.1512919068336487e-01" nType="0">
          <Node pos="l" depth="2" NCoef="0" IVar="-1" Cut="0.0000000000000000e+00" cType="1" res="-9.9000000000000000e+01" rms="0.0000000000000000e+00" purity="5.4283261299133301e-01" nType="1"/>
          <Node pos="r" depth="2" NCoef="0" IVar="-1" Cut="0.0000000000000000e+00" cType="1" res="-9.9000000000000000e+01" rms="0.0000000000000000e+00" purity="2.0268904045224190e-02" nType="-1"/>
        </Node>
      </Node>
    </BinaryTree>
    <BinaryTree type="DecisionTree" boostWeight="2.6413061926340325e-01" itree="45">
      <Node pos="s" depth="0" NCoef="0" IVar="50" Cut="1.9194415211677551e-01" cType="0" res="-9.9000000000000000e+01" rms="0.0000000000000000e+00" purity="5.0572150945663452e-01" nType="0">
        <Node pos="l" depth="1" NCoef="0" IVar="5" Cut="-1.4004716873168945e+00" cType="0" res="-9.9000000000000000e+01" rms="0.0000000000000000e+00" purity="5.3881657123565674e-01" nType="0">
          <Node pos="l" depth="2" NCoef="0" IVar="-1" Cut="0.0000000000000000e+00" cType="1" res="-9.9000000000000000e+01" rms="0.0000000000000000e+00" purity="5.6459814310073853e-01" nType="1"/>
          <Node pos="r" depth="2" NCoef="0" IVar="-1" Cut="0.0000000000000000e+00" cType="1" res="-9.9000000000000000e+01" rms="0.0000000000000000e+00" purity="3.1732550263404846e-01" nType="-1"/>
        </Node>
        <Node pos="r" depth="1" NCoef="0" IVar="41" Cut="-7.3831146955490112e-01" cType="0" res="-9.9000000000000000e+01" rms="0.0000000000000000e+00" purity="3.6033803224563599e-01" nType="0">
          <Node pos="l" depth="2" NCoef="0" IVar="-1" Cut="0.0000000000000000e+00" cType="1" res="-9.9000000000000000e+01" rms="0.0000000000000000e+00" purity="6.9377535581588745e-01" nType="1"/>
          <Node pos="r" depth="2" NCoef="0" IVar="-1" Cut="0.0000000000000000e+00" cType="1" res="-9.9000000000000000e+01" rms="0.0000000000000000e+00" purity="2.3383356630802155e-01" nType="-1"/>
        </Node>
      </Node>
    </BinaryTree>
    <BinaryTree type="DecisionTree" boostWeight="3.3944053524197954e-01" itree="46">
      <Node pos="s" depth="0" NCoef="0" IVar="20" Cut="4.7472358703613281e+01" cType="0" res="-9.9000000000000000e+01" rms="0.0000000000000000e+00" purity="4.3494045734405518e-01" nType="0">
        <Node pos="l" depth="1" NCoef="0" IVar="18" Cut="1.2536648750305176e+01" cType="1" res="-9.9000000000000000e+01" rms="0.0000000000000000e+00" purity="5.0675511360168457e-01" nType="0">
          <Node pos="l" depth="2" NCoef="0" IVar="-1" Cut="0.0000000000000000e+00" cType="1" res="-9.9000000000000000e+01" rms="0.0000000000000000e+00" purity="6.8353819847106934e-01" nType="1"/>
          <Node pos="r" depth="2" NCoef="0" IVar="-1" Cut="0.0000000000000000e+00" cType="1" res="-9.9000000000000000e+01" rms="0.0000000000000000e+00" purity="4.0302973985671997e-01" nType="-1"/>
        </Node>
        <Node pos="r" depth="1" NCoef="0" IVar="44" Cut="1.6869667172431946e-01" cType="0" res="-9.9000000000000000e+01" rms="0.0000000000000000e+00" purity="3.7616792321205139e-01" nType="0">
          <Node pos="l" depth="2" NCoef="0" IVar="-1" Cut="0.0000000000000000e+00" cType="1" res="-9.9000000000000000e+01" rms="0.0000000000000000e+00" purity="5.2945125102996826e-01" nType="1"/>
          <Node pos="r" depth="2" NCoef="0" IVar="-1" Cut="0.0000000000000000e+00" cType="1" res="-9.9000000000000000e+01" rms="0.0000000000000000e+00" purity="2.9032078385353088e-01" nType="-1"/>
        </Node>
      </Node>
    </BinaryTree>
    <BinaryTree type="DecisionTree" boostWeight="1.5312797216846089e-01" itree="47">
      <Node pos="s" depth="0" NCoef="0" IVar="50" Cut="1.9315326213836670e-01" cType="0" res="-9.9000000000000000e+01" rms="0.0000000000000000e+00" purity="4.4733381271362305e-01" nType="0">
        <Node pos="l" depth="1" NCoef="0" IVar="-1" Cut="3.2682086944580078e+01" cType="1" res="-9.9000000000000000e+01" rms="0.0000000000000000e+00" purity="4.7706687450408936e-01" nType="-1"/>
        <Node pos="r" depth="1" NCoef="0" IVar="35" Cut="9.8291826248168945e-01" cType="1" res="-9.9000000000000000e+01" rms="0.0000000000000000e+00" purity="2.8473839163780212e-01" nType="0">
          <Node pos="l" depth="2" NCoef="0" IVar="-1" Cut="0.0000000000000000e+00" cType="1" res="-9.9000000000000000e+01" rms="0.0000000000000000e+00" purity="6.9106614589691162e-01" nType="1"/>
          <Node pos="r" depth="2" NCoef="0" IVar="-1" Cut="0.0000000000000000e+00" cType="1" res="-9.9000000000000000e+01" rms="0.0000000000000000e+00" purity="1.9390861690044403e-01" nType="-1"/>
        </Node>
      </Node>
    </BinaryTree>
    <BinaryTree type="DecisionTree" boostWeight="1.3305270136660360e-01" itree="48">
      <Node pos="s" depth="0" NCoef="0" IVar="21" Cut="4.2688213348388672e+01" cType="0" res="-9.9000000000000000e+01" rms="0.0000000000000000e+00" purity="4.6025806665420532e-01" nType="0">
        <Node pos="l" depth="1" NCoef="0" IVar="19" Cut="2.6432081222534180e+01" cType="1" res="-9.9000000000000000e+01" rms="0.0000000000000000e+00" purity="4.9643531441688538e-01" nType="0">
          <Node pos="l" depth="2" NCoef="0" IVar="-1" Cut="0.0000000000000000e+00" cType="1" res="-9.9000000000000000e+01" rms="0.0000000000000000e+00" purity="5.0973373651504517e-01" nType="1"/>
          <Node pos="r" depth="2" NCoef="0" IVar="-1" Cut="0.0000000000000000e+00" cType="1" res="-9.9000000000000000e+01" rms="0.0000000000000000e+00" purity="1.6326028108596802e-01" nType="-1"/>
        </Node>
        <Node pos="r" depth="1" NCoef="0" IVar="-1" Cut="-7.4185937643051147e-01" cType="0" res="-9.9000000000000000e+01" rms="0.0000000000000000e+00" purity="2.8802576661109924e-01" nType="-1"/>
      </Node>
    </BinaryTree>
    <BinaryTree type="DecisionTree" boostWeight="1.1535168294151263e-01" itree="49">
      <Node pos="s" depth="0" NCoef="0" IVar="22" Cut="2.5163900852203369e+00" cType="0" res="-9.9000000000000000e+01" rms="0.0000000000000000e+00" purity="4.5990091562271118e-01" nType="0">
        <Node pos="l" depth="1" NCoef="0" IVar="41" Cut="-7.4190229177474976e-01" cType="0" res="-9.9000000000000000e+01" rms="0.0000000000000000e+00" purity="4.6824011206626892e-01" nType="0">
          <Node pos="l" depth="2" NCoef="0" IVar="-1" Cut="0.0000000000000000e+00" cType="1" res="-9.9000000000000000e+01" rms="0.0000000000000000e+00" purity="5.0538986921310425e-01" nType="1"/>
          <Node pos="r" depth="2" NCoef="0" IVar="-1" Cut="0.0000000000000000e+00" cType="1" res="-9.9000000000000000e+01" rms="0.0000000000000000e+00" purity="3.6294499039649963e-01" nType="-1"/>
        </Node>
        <Node pos="r" depth="1" NCoef="0" IVar="-1" Cut="1.1300017833709717e+00" cType="0" res="-9.9000000000000000e+01" rms="0.0000000000000000e+00" purity="3.0305819585919380e-02" nType="-1"/>
      </Node>
    </BinaryTree>
    <BinaryTree type="DecisionTree" boostWeight="1.8401538146113922e-01" itree="50">
      <Node pos="s" depth="0" NCoef="0" IVar="46" Cut="2.9388897418975830e+00" cType="1" res="-9.9000000000000000e+01" rms="0.0000000000000000e+00" purity="4.5357474684715271e-01" nType="0">
        <Node pos="l" depth="1" NCoef="0" IVar="12" Cut="9.7779788970947266e+00" cType="0" res="-9.9000000000000000e+01" rms="0.0000000000000000e+00" purity="4.7303733229637146e-01" nType="0">
          <Node pos="l" depth="2" NCoef="0" IVar="-1" Cut="0.0000000000000000e+00" cType="1" res="-9.9000000000000000e+01" rms="0.0000000000000000e+00" purity="5.2877789735794067e-01" nType="1"/>
          <Node pos="r" depth="2" NCoef="0" IVar="-1" Cut="0.0000000000000000e+00" cType="1" res="-9.9000000000000000e+01" rms="0.0000000000000000e+00" purity="4.0306961536407471e-01" nType="-1"/>
        </Node>
        <Node pos="r" depth="1" NCoef="0" IVar="-1" Cut="4.4662162780761719e+01" cType="0" res="-9.9000000000000000e+01" rms="0.0000000000000000e+00" purity="2.1133823692798615e-01" nType="-1"/>
      </Node>
    </BinaryTree>
    <BinaryTree type="DecisionTree" boostWeight="5.1631009786707899e-02" itree="51">
      <Node pos="s" depth="0" NCoef="0" IVar="19" Cut="3.3278770446777344e+01" cType="1" res="-9.9000000000000000e+01" rms="0.0000000000000000e+00" purity="5.0244206190109253e-01" nType="0">
        <Node pos="l" depth="1" NCoef="0" IVar="2" Cut="2.7764258384704590e+00" cType="0" res="-9.9000000000000000e+01" rms="0.0000000000000000e+00" purity="5.1159650087356567e-01" nType="0">
          <Node pos="l" depth="2" NCoef="0" IVar="-1" Cut="0.0000000000000000e+00" cType="1" res="-9.9000000000000000e+01" rms="0.0000000000000000e+00" purity="8.6537820100784302e-01" nType="1"/>
          <Node pos="r" depth="2" NCoef="0" IVar="-1" Cut="0.0000000000000000e+00" cType="1" res="-9.9000000000000000e+01" rms="0.0000000000000000e+00" purity="4.9938714504241943e-01" nType="-1"/>
        </Node>
        <Node pos="r" depth="1" NCoef="0" IVar="-1" Cut="0.0000000000000000e+00" cType="1" res="-9.9000000000000000e+01" rms="0.0000000000000000e+00" purity="0.0000000000000000e+00" nType="-1"/>
      </Node>
    </BinaryTree>
    <BinaryTree type="DecisionTree" boostWeight="1.5437902073247486e-01" itree="52">
      <Node pos="s" depth="0" NCoef="0" IVar="19" Cut="3.1909313201904297e+01" cType="1" res="-9.9000000000000000e+01" rms="0.0000000000000000e+00" purity="5.1850217580795288e-01" nType="0">
        <Node pos="l" depth="1" NCoef="0" IVar="1" Cut="-1.2089521437883377e-01" cType="1" res="-9.9000000000000000e+01" rms="0.0000000000000000e+00" purity="5.2923393249511719e-01" nType="0">
          <Node pos="l" depth="2" NCoef="0" IVar="-1" Cut="0.0000000000000000e+00" cType="1" res="-9.9000000000000000e+01" rms="0.0000000000000000e+00" purity="6.1223775148391724e-01" nType="1"/>
          <Node pos="r" depth="2" NCoef="0" IVar="-1" Cut="0.0000000000000000e+00" cType="1" res="-9.9000000000000000e+01" rms="0.0000000000000000e+00" purity="4.7942888736724854e-01" nType="-1"/>
        </Node>
        <Node pos="r" depth="1" NCoef="0" IVar="-1" Cut="0.0000000000000000e+00" cType="1" res="-9.9000000000000000e+01" rms="0.0000000000000000e+00" purity="0.0000000000000000e+00" nType="-1"/>
      </Node>
    </BinaryTree>
    <BinaryTree type="DecisionTree" boostWeight="1.1068162250448239e-01" itree="53">
      <Node pos="s" depth="0" NCoef="0" IVar="31" Cut="2.9388701915740967e+00" cType="1" res="-9.9000000000000000e+01" rms="0.0000000000000000e+00" purity="4.8978748917579651e-01" nType="0">
        <Node pos="l" depth="1" NCoef="0" IVar="19" Cut="2.9170827865600586e+01" cType="1" res="-9.9000000000000000e+01" rms="0.0000000000000000e+00" purity="5.0747996568679810e-01" nType="0">
          <Node pos="l" depth="2" NCoef="0" IVar="-1" Cut="0.0000000000000000e+00" cType="1" res="-9.9000000000000000e+01" rms="0.0000000000000000e+00" purity="5.1936417818069458e-01" nType="1"/>
          <Node pos="r" depth="2" NCoef="0" IVar="-1" Cut="0.0000000000000000e+00" cType="1" res="-9.9000000000000000e+01" rms="0.0000000000000000e+00" purity="3.3761609345674515e-02" nType="-1"/>
        </Node>
        <Node pos="r" depth="1" NCoef="0" IVar="-1" Cut="1.6541082382202148e+01" cType="1" res="-9.9000000000000000e+01" rms="0.0000000000000000e+00" purity="1.7427922785282135e-01" nType="-1"/>
      </Node>
    </BinaryTree>
    <BinaryTree type="DecisionTree" boostWeight="1.7911809118191463e-01" itree="54">
      <Node pos="s" depth="0" NCoef="0" IVar="51" Cut="3.6203052520751953e+01" cType="1" res="-9.9000000000000000e+01" rms="0.0000000000000000e+00" purity="4.6363714337348938e-01" nType="0">
        <Node pos="l" depth="1" NCoef="0" IVar="27" Cut="2.0903274536132812e+01" cType="1" res="-9.9000000000000000e+01" rms="0.0000000000000000e+00" purity="4.7648781538009644e-01" nType="0">
          <Node pos="l" depth="2" NCoef="0" IVar="-1" Cut="0.0000000000000000e+00" cType="1" res="-9.9000000000000000e+01" rms="0.0000000000000000e+00" purity="6.5233373641967773e-01" nType="1"/>
          <Node pos="r" depth="2" NCoef="0" IVar="-1" Cut="0.0000000000000000e+00" cType="1" res="-9.9000000000000000e+01" rms="0.0000000000000000e+00" purity="4.5172774791717529e-01" nType="-1"/>
        </Node>
        <Node pos="r" depth="1" NCoef="0" IVar="29" Cut="1.2733692169189453e+01" cType="1" res="-9.9000000000000000e+01" rms="0.0000000000000000e+00" purity="1.4753589034080505e-01" nType="0">
          <Node pos="l" depth="2" NCoef="0" IVar="-1" Cut="0.0000000000000000e+00" cType="1" res="-9.9000000000000000e+01" rms="0.0000000000000000e+00" purity="6.3134127855300903e-01" nType="1"/>
          <Node pos="r" depth="2" NCoef="0" IVar="-1" Cut="0.0000000000000000e+00" cType="1" res="-9.9000000000000000e+01" rms="0.0000000000000000e+00" purity="5.9139277786016464e-02" nType="-1"/>
        </Node>
      </Node>
    </BinaryTree>
    <BinaryTree type="DecisionTree" boostWeight="1.3784017760160239e-01" itree="55">
      <Node pos="s" depth="0" NCoef="0" IVar="51" Cut="3.7333110809326172e+01" cType="1" res="-9.9000000000000000e+01" rms="0.0000000000000000e+00" purity="4.9329727888107300e-01" nType="0">
        <Node pos="l" depth="1" NCoef="0" IVar="19" Cut="1.1369252204895020e+01" cType="1" res="-9.9000000000000000e+01" rms="0.0000000000000000e+00" purity="5.0740790367126465e-01" nType="0">
          <Node pos="l" depth="2" NCoef="0" IVar="-1" Cut="0.0000000000000000e+00" cType="1" res="-9.9000000000000000e+01" rms="0.0000000000000000e+00" purity="6.2821906805038452e-01" nType="1"/>
          <Node pos="r" depth="2" NCoef="0" IVar="-1" Cut="0.0000000000000000e+00" cType="1" res="-9.9000000000000000e+01" rms="0.0000000000000000e+00" purity="4.7725990414619446e-01" nType="-1"/>
        </Node>
        <Node pos="r" depth="1" NCoef="0" IVar="20" Cut="2.0924818038940430e+01" cType="1" res="-9.9000000000000000e+01" rms="0.0000000000000000e+00" purity="1.7888765037059784e-01" nType="0">
          <Node pos="l" depth="2" NCoef="0" IVar="-1" Cut="0.0000000000000000e+00" cType="1" res="-9.9000000000000000e+01" rms="0.0000000000000000e+00" purity="5.8461374044418335e-01" nType="1"/>
          <Node pos="r" depth="2" NCoef="0" IVar="-1" Cut="0.0000000000000000e+00" cType="1" res="-9.9000000000000000e+01" rms="0.0000000000000000e+00" purity="7.6383031904697418e-02" nType="-1"/>
        </Node>
      </Node>
    </BinaryTree>
    <BinaryTree type="DecisionTree" boostWeight="1.1043780701812742e-01" itree="56">
      <Node pos="s" depth="0" NCoef="0" IVar="46" Cut="2.9388897418975830e+00" cType="1" res="-9.9000000000000000e+01" rms="0.0000000000000000e+00" purity="4.7055530548095703e-01" nType="0">
        <Node pos="l" depth="1" NCoef="0" IVar="51" Cut="3.7333412170410156e+01" cType="1" res="-9.9000000000000000e+01" rms="0.0000000000000000e+00" purity="4.9247729778289795e-01" nType="0">
          <Node pos="l" depth="2" NCoef="0" IVar="-1" Cut="0.0000000000000000e+00" cType="1" res="-9.9000000000000000e+01" rms="0.0000000000000000e+00" purity="5.0751858949661255e-01" nType="1"/>
          <Node pos="r" depth="2" NCoef="0" IVar="-1" Cut="0.0000000000000000e+00" cType="1" res="-9.9000000000000000e+01" rms="0.0000000000000000e+00" purity="7.0317007601261139e-02" nType="-1"/>
        </Node>
        <Node pos="r" depth="1" NCoef="0" IVar="40" Cut="-6.8305259943008423e-01" cType="0" res="-9.9000000000000000e+01" rms="0.0000000000000000e+00" purity="1.9909885525703430e-01" nType="0">
          <Node pos="l" depth="2" NCoef="0" IVar="-1" Cut="0.0000000000000000e+00" cType="1" res="-9.9000000000000000e+01" rms="0.0000000000000000e+00" purity="6.9374775886535645e-01" nType="1"/>
          <Node pos="r" depth="2" NCoef="0" IVar="-1" Cut="0.0000000000000000e+00" cType="1" res="-9.9000000000000000e+01" rms="0.0000000000000000e+00" purity="1.4178182184696198e-01" nType="-1"/>
        </Node>
      </Node>
    </BinaryTree>
    <BinaryTree type="DecisionTree" boostWeight="1.0005878799245821e-01" itree="57">
      <Node pos="s" depth="0" NCoef="0" IVar="46" Cut="2.9388892650604248e+00" cType="1" res="-9.9000000000000000e+01" rms="0.0000000000000000e+00" purity="4.7739848494529724e-01" nType="0">
        <Node pos="l" depth="1" NCoef="0" IVar="29" Cut="3.2109901428222656e+01" cType="1" res="-9.9000000000000000e+01" rms="0.0000000000000000e+00" purity="4.9707511067390442e-01" nType="0">
          <Node pos="l" depth="2" NCoef="0" IVar="-1" Cut="0.0000000000000000e+00" cType="1" res="-9.9000000000000000e+01" rms="0.0000000000000000e+00" purity="5.0639677047729492e-01" nType="1"/>
          <Node pos="r" depth="2" NCoef="0" IVar="-1" Cut="0.0000000000000000e+00" cType="1" res="-9.9000000000000000e+01" rms="0.0000000000000000e+00" purity="4.4390827417373657e-02" nType="-1"/>
        </Node>
        <Node pos="r" depth="1" NCoef="0" IVar="28" Cut="4.4586887359619141e+01" cType="0" res="-9.9000000000000000e+01" rms="0.0000000000000000e+00" purity="2.3503892123699188e-01" nType="0">
          <Node pos="l" depth="2" NCoef="0" IVar="-1" Cut="0.0000000000000000e+00" cType="1" res="-9.9000000000000000e+01" rms="0.0000000000000000e+00" purity="6.5499454736709595e-01" nType="1"/>
          <Node pos="r" depth="2" NCoef="0" IVar="-1" Cut="0.0000000000000000e+00" cType="1" res="-9.9000000000000000e+01" rms="0.0000000000000000e+00" purity="3.9344374090433121e-02" nType="-1"/>
        </Node>
      </Node>
    </BinaryTree>
    <BinaryTree type="DecisionTree" boostWeight="2.1373909096227262e-01" itree="58">
      <Node pos="s" depth="0" NCoef="0" IVar="51" Cut="2.5769598007202148e+01" cType="1" res="-9.9000000000000000e+01" rms="0.0000000000000000e+00" purity="4.7868672013282776e-01" nType="0">
        <Node pos="l" depth="1" NCoef="0" IVar="21" Cut="3.8243110656738281e+01" cType="0" res="-9.9000000000000000e+01" rms="0.0000000000000000e+00" purity="5.5721151828765869e-01" nType="0">
          <Node pos="l" depth="2" NCoef="0" IVar="-1" Cut="0.0000000000000000e+00" cType="1" res="-9.9000000000000000e+01" rms="0.0000000000000000e+00" purity="5.8308607339859009e-01" nType="1"/>
          <Node pos="r" depth="2" NCoef="0" IVar="-1" Cut="0.0000000000000000e+00" cType="1" res="-9.9000000000000000e+01" rms="0.0000000000000000e+00" purity="2.6893812417984009e-01" nType="-1"/>
        </Node>
        <Node pos="r" depth="1" NCoef="0" IVar="-1" Cut="3.6099357604980469e+00" cType="0" res="-9.9000000000000000e+01" rms="0.0000000000000000e+00" purity="4.1744524240493774e-01" nType="-1"/>
      </Node>
    </BinaryTree>
    <BinaryTree type="DecisionTree" boostWeight="1.5931431291738682e-01" itree="59">
      <Node pos="s" depth="0" NCoef="0" IVar="22" Cut="1.2225784063339233e+00" cType="0" res="-9.9000000000000000e+01" rms="0.0000000000000000e+00" purity="4.9229547381401062e-01" nType="0">
        <Node pos="l" depth="1" NCoef="0" IVar="22" Cut="1.4541118621826172e+01" cType="1" res="-9.9000000000000000e+01" rms="0.0000000000000000e+00" purity="4.9939471483230591e-01" nType="0">
          <Node pos="l" depth="2" NCoef="0" IVar="-1" Cut="0.0000000000000000e+00" cType="1" res="-9.9000000000000000e+01" rms="0.0000000000000000e+00" purity="5.5348378419876099e-01" nType="1"/>
          <Node pos="r" depth="2" NCoef="0" IVar="-1" Cut="0.0000000000000000e+00" cType="1" res="-9.9000000000000000e+01" rms="0.0000000000000000e+00" purity="4.3252074718475342e-01" nType="-1"/>
        </Node>
        <Node pos="r" depth="1" NCoef="0" IVar="-1" Cut="1.3433162689208984e+01" cType="0" res="-9.9000000000000000e+01" rms="0.0000000000000000e+00" purity="4.0353559888899326e-03" nType="-1"/>
      </Node>
    </BinaryTree>
    <BinaryTree type="DecisionTree" boostWeight="1.9017161575150593e-01" itree="60">
      <Node pos="s" depth="0" NCoef="0" IVar="21" Cut="3.7991127014160156e+01" cType="0" res="-9.9000000000000000e+01" rms="0.0000000000000000e+00" purity="4.8155468702316284e-01" nType="0">
        <Node pos="l" depth="1" NCoef="0" IVar="6" Cut="4.9719628691673279e-01" cType="0" res="-9.9000000000000000e+01" rms="0.0000000000000000e+00" purity="4.9862626194953918e-01" nType="0">
          <Node pos="l" depth="2" NCoef="0" IVar="-1" Cut="0.0000000000000000e+00" cType="1" res="-9.9000000000000000e+01" rms="0.0000000000000000e+00" purity="5.9415018558502197e-01" nType="1"/>
          <Node pos="r" depth="2" NCoef="0" IVar="-1" Cut="0.0000000000000000e+00" cType="1" res="-9.9000000000000000e+01" rms="0.0000000000000000e+00" purity="4.4901973009109497e-01" nType="-1"/>
        </Node>
        <Node pos="r" depth="1" NCoef="0" IVar="-1" Cut="1.1136361360549927e+00" cType="0" res="-9.9000000000000000e+01" rms="0.0000000000000000e+00" purity="2.3863790929317474e-01" nType="-1"/>
      </Node>
    </BinaryTree>
    <BinaryTree type="DecisionTree" boostWeight="8.8210877565015763e-02" itree="61">
      <Node pos="s" depth="0" NCoef="0" IVar="21" Cut="3.6665149688720703e+01" cType="0" res="-9.9000000000000000e+01" rms="0.0000000000000000e+00" purity="4.9317729473114014e-01" nType="0">
        <Node pos="l" depth="1" NCoef="0" IVar="18" Cut="3.2053836822509766e+01" cType="1" res="-9.9000000000000000e+01" rms="0.0000000000000000e+00" purity="5.0918018817901611e-01" nType="0">
          <Node pos="l" depth="2" NCoef="0" IVar="-1" Cut="0.0000000000000000e+00" cType="1" res="-9.9000000000000000e+01" rms="0.0000000000000000e+00" purity="5.1621431112289429e-01" nType="1"/>
          <Node pos="r" depth="2" NCoef="0" IVar="-1" Cut="0.0000000000000000e+00" cType="1" res="-9.9000000000000000e+01" rms="0.0000000000000000e+00" purity="7.9684771597385406e-02" nType="-1"/>
        </Node>
        <Node pos="r" depth="1" NCoef="0" IVar="-1" Cut="-5.4188841581344604e-01" cType="0" res="-9.9000000000000000e+01" rms="0.0000000000000000e+00" purity="2.5892844796180725e-01" nType="-1"/>
      </Node>
    </BinaryTree>
    <BinaryTree type="DecisionTree" boostWeight="8.8314050237713923e-02" itree="62">
      <Node pos="s" depth="0" NCoef="0" IVar="-1" Cut="3.1909431457519531e+01" cType="1" res="-9.9000000000000000e+01" rms="0.0000000000000000e+00" purity="4.6326878666877747e-01" nType="-1"/>
    </BinaryTree>
    <BinaryTree type="DecisionTree" boostWeight="2.0758707262866927e-01" itree="63">
      <Node pos="s" depth="0" NCoef="0" IVar="51" Cut="3.0416267395019531e+01" cType="1" res="-9.9000000000000000e+01" rms="0.0000000000000000e+00" purity="4.8510557413101196e-01" nType="0">
        <Node pos="l" depth="1" NCoef="0" IVar="12" Cut="9.7817401885986328e+00" cType="0" res="-9.9000000000000000e+01" rms="0.0000000000000000e+00" purity="5.1156616210937500e-01" nType="0">
          <Node pos="l" depth="2" NCoef="0" IVar="-1" Cut="0.0000000000000000e+00" cType="1" res="-9.9000000000000000e+01" rms="0.0000000000000000e+00" purity="5.6614786386489868e-01" nType="1"/>
          <Node pos="r" depth="2" NCoef="0" IVar="-1" Cut="0.0000000000000000e+00" cType="1" res="-9.9000000000000000e+01" rms="0.0000000000000000e+00" purity="4.3767195940017700e-01" nType="-1"/>
        </Node>
        <Node pos="r" depth="1" NCoef="0" IVar="14" Cut="2.6340440750122070e+01" cType="1" res="-9.9000000000000000e+01" rms="0.0000000000000000e+00" purity="2.9932096600532532e-01" nType="0">
          <Node pos="l" depth="2" NCoef="0" IVar="-1" Cut="0.0000000000000000e+00" cType="1" res="-9.9000000000000000e+01" rms="0.0000000000000000e+00" purity="5.6048595905303955e-01" nType="1"/>
          <Node pos="r" depth="2" NCoef="0" IVar="-1" Cut="0.0000000000000000e+00" cType="1" res="-9.9000000000000000e+01" rms="0.0000000000000000e+00" purity="2.0041550695896149e-01" nType="-1"/>
        </Node>
      </Node>
    </BinaryTree>
    <BinaryTree type="DecisionTree" boostWeight="1.9306713661794461e-01" itree="64">
      <Node pos="s" depth="0" NCoef="0" IVar="36" Cut="-9.5632873475551605e-02" cType="0" res="-9.9000000000000000e+01" rms="0.0000000000000000e+00" purity="4.8559248447418213e-01" nType="0">
        <Node pos="l" depth="1" NCoef="0" IVar="19" Cut="3.1909259796142578e+01" cType="1" res="-9.9000000000000000e+01" rms="0.0000000000000000e+00" purity="5.5261957645416260e-01" nType="0">
          <Node pos="l" depth="2" NCoef="0" IVar="-1" Cut="0.0000000000000000e+00" cType="1" res="-9.9000000000000000e+01" rms="0.0000000000000000e+00" purity="5.6231665611267090e-01" nType="1"/>
          <Node pos="r" depth="2" NCoef="0" IVar="-1" Cut="0.0000000000000000e+00" cType="1" res="-9.9000000000000000e+01" rms="0.0000000000000000e+00" purity="0.0000000000000000e+00" nType="-1"/>
        </Node>
        <Node pos="r" depth="1" NCoef="0" IVar="-1" Cut="-2.9387073516845703e+00" cType="0" res="-9.9000000000000000e+01" rms="0.0000000000000000e+00" purity="4.0892642736434937e-01" nType="-1"/>
      </Node>
    </BinaryTree>
    <BinaryTree type="DecisionTree" boostWeight="9.2502152917612074e-02" itree="65">
      <Node pos="s" depth="0" NCoef="0" IVar="22" Cut="1.2443991899490356e+00" cType="0" res="-9.9000000000000000e+01" rms="0.0000000000000000e+00" purity="4.9070227146148682e-01" nType="0">
        <Node pos="l" depth="1" NCoef="0" IVar="47" Cut="2.9387633800506592e+00" cType="1" res="-9.9000000000000000e+01" rms="0.0000000000000000e+00" purity="4.9710848927497864e-01" nType="0">
          <Node pos="l" depth="2" NCoef="0" IVar="-1" Cut="0.0000000000000000e+00" cType="1" res="-9.9000000000000000e+01" rms="0.0000000000000000e+00" purity="5.1646268367767334e-01" nType="1"/>
          <Node pos="r" depth="2" NCoef="0" IVar="-1" Cut="0.0000000000000000e+00" cType="1" res="-9.9000000000000000e+01" rms="0.0000000000000000e+00" purity="3.2707923650741577e-01" nType="-1"/>
        </Node>
        <Node pos="r" depth="1" NCoef="0" IVar="-1" Cut="-5.8551359176635742e-01" cType="1" res="-9.9000000000000000e+01" rms="0.0000000000000000e+00" purity="1.3832341879606247e-02" nType="-1"/>
      </Node>
    </BinaryTree>
    <BinaryTree type="DecisionTree" boostWeight="1.0848162592886600e-01" itree="66">
      <Node pos="s" depth="0" NCoef="0" IVar="22" Cut="1.3048113584518433e+00" cType="0" res="-9.9000000000000000e+01" rms="0.0000000000000000e+00" purity="4.8366096615791321e-01" nType="0">
        <Node pos="l" depth="1" NCoef="0" IVar="42" Cut="1.7675516009330750e-01" cType="0" res="-9.9000000000000000e+01" rms="0.0000000000000000e+00" purity="4.8996719717979431e-01" nType="0">
          <Node pos="l" depth="2" NCoef="0" IVar="-1" Cut="0.0000000000000000e+00" cType="1" res="-9.9000000000000000e+01" rms="0.0000000000000000e+00" purity="7.2074443101882935e-01" nType="1"/>
          <Node pos="r" depth="2" NCoef="0" IVar="-1" Cut="0.0000000000000000e+00" cType="1" res="-9.9000000000000000e+01" rms="0.0000000000000000e+00" purity="4.7366875410079956e-01" nType="-1"/>
        </Node>
        <Node pos="r" depth="1" NCoef="0" IVar="-1" Cut="1.6075558960437775e-01" cType="0" res="-9.9000000000000000e+01" rms="0.0000000000000000e+00" purity="1.1880171485245228e-02" nType="-1"/>
      </Node>
    </BinaryTree>
    <BinaryTree type="DecisionTree" boostWeight="6.7978122114880732e-02" itree="67">
      <Node pos="s" depth="0" NCoef="0" IVar="22" Cut="1.2326489686965942e+00" cType="0" res="-9.9000000000000000e+01" rms="0.0000000000000000e+00" purity="4.8569592833518982e-01" nType="0">
        <Node pos="l" depth="1" NCoef="0" IVar="42" Cut="2.8922107815742493e-01" cType="0" res="-9.9000000000000000e+01" rms="0.0000000000000000e+00" purity="4.9183514714241028e-01" nType="0">
          <Node pos="l" depth="2" NCoef="0" IVar="-1" Cut="0.0000000000000000e+00" cType="1" res="-9.9000000000000000e+01" rms="0.0000000000000000e+00" purity="8.4132295846939087e-01" nType="1"/>
          <Node pos="r" depth="2" NCoef="0" IVar="-1" Cut="0.0000000000000000e+00" cType="1" res="-9.9000000000000000e+01" rms="0.0000000000000000e+00" purity="4.8442861437797546e-01" nType="-1"/>
        </Node>
        <Node pos="r" depth="1" NCoef="0" IVar="-1" Cut="0.0000000000000000e+00" cType="1" res="-9.9000000000000000e+01" rms="0.0000000000000000e+00" purity="0.0000000000000000e+00" nType="-1"/>
      </Node>
    </BinaryTree>
    <BinaryTree type="DecisionTree" boostWeight="1.5367638094136613e-01" itree="68">
      <Node pos="s" depth="0" NCoef="0" IVar="12" Cut="1.6354789733886719e+01" cType="1" res="-9.9000000000000000e+01" rms="0.0000000000000000e+00" purity="5.1592159271240234e-01" nType="0">
        <Node pos="l" depth="1" NCoef="0" IVar="-1" Cut="3.8131263732910156e+01" cType="0" res="-9.9000000000000000e+01" rms="0.0000000000000000e+00" purity="5.4058915376663208e-01" nType="1"/>
        <Node pos="r" depth="1" NCoef="0" IVar="39" Cut="-8.6182993650436401e-01" cType="1" res="-9.9000000000000000e+01" rms="0.0000000000000000e+00" purity="3.4767082333564758e-01" nType="0">
          <Node pos="l" depth="2" NCoef="0" IVar="-1" Cut="0.0000000000000000e+00" cType="1" res="-9.9000000000000000e+01" rms="0.0000000000000000e+00" purity="6.1632901430130005e-01" nType="1"/>
          <Node pos="r" depth="2" NCoef="0" IVar="-1" Cut="0.0000000000000000e+00" cType="1" res="-9.9000000000000000e+01" rms="0.0000000000000000e+00" purity="2.3468257486820221e-01" nType="-1"/>
        </Node>
      </Node>
    </BinaryTree>
    <BinaryTree type="DecisionTree" boostWeight="1.6804985563185862e-01" itree="69">
      <Node pos="s" depth="0" NCoef="0" IVar="47" Cut="-2.9388461112976074e+00" cType="0" res="-9.9000000000000000e+01" rms="0.0000000000000000e+00" purity="4.8542410135269165e-01" nType="0">
        <Node pos="l" depth="1" NCoef="0" IVar="47" Cut="-1.1735537052154541e+00" cType="1" res="-9.9000000000000000e+01" rms="0.0000000000000000e+00" purity="5.0738716125488281e-01" nType="0">
          <Node pos="l" depth="2" NCoef="0" IVar="-1" Cut="0.0000000000000000e+00" cType="1" res="-9.9000000000000000e+01" rms="0.0000000000000000e+00" purity="6.1774176359176636e-01" nType="1"/>
          <Node pos="r" depth="2" NCoef="0" IVar="-1" Cut="0.0000000000000000e+00" cType="1" res="-9.9000000000000000e+01" rms="0.0000000000000000e+00" purity="4.7190263867378235e-01" nType="-1"/>
        </Node>
        <Node pos="r" depth="1" NCoef="0" IVar="10" Cut="-4.0534907579421997e-01" cType="1" res="-9.9000000000000000e+01" rms="0.0000000000000000e+00" purity="2.5647306442260742e-01" nType="0">
          <Node pos="l" depth="2" NCoef="0" IVar="-1" Cut="0.0000000000000000e+00" cType="1" res="-9.9000000000000000e+01" rms="0.0000000000000000e+00" purity="5.7502454519271851e-01" nType="1"/>
